tree
version=v4
num_class=1
num_tree_per_iteration=1
label_index=0
max_feature_idx=7
objective=regression
feature_names=pe_ttm pb roe rsi_6 macd volume_ratio capital_flow_10d ma5_gap
monotone_constraints=-1 0 1 0 0 0 1 0
feature_infos=[3.5534243461585571:156.40542896036061] [0.42821644184052637:16.882457433178573] [-14.179731434136027:28.485122155880351] [15.076091386345277:84.974493779781071] [-1.0872180759521186:1.2173317981997618] [0.40745412895332356:2.6396360846304097] [-25095.555285056071:25942.65657414604] [-13.679260717648365:13.487283257667077]
tree_sizes=1605 1595 1602 1600 1603 1596 1612 1615 1616 1618 1616 1625 1434 1621 1436 1531 1531 1521 1436 1532 1616 1531 1435 1619 1523 1529 1520 1525 1521 1628 1427 1440 1524 1429 1437 1434 1523 1523 1527 1517 1527 1614 1513 1605 1430 1514 1620 1527 1520 1520 1426 1431 1428 1531 1611 1533 1430 1517 1429 1516 1427 1512 1505 1430 1351 1339 1349 1331 1615 1520 1257 1342 1340 1425 1522 1524 1335 1254 1337 1256 1427 1347 1341 1239 1235 1256 1336 1433 1235 1062 1342 1235 1067 970 1061 705 1248 1339 708 887 1243 888 1064 882 1157 714 1251 887 1439 1064 708 885 969 973 1422 885 1159 890 978 1060 1257 888 1158 1068 889 1253 1069 894 884 970 969 892 885 1064 973 1061 1254 882 881 1067 975 1239 796 1059 880 1159 1162 892 886 1156 884 973 1062 1253 972 888 971 1067 1160 885 1071 886 702 1068 879 703 1062 980 1244 1526 1254 794 882 886 798 793 709 974 1248 1344 794 798 1522 973 796 1155 976 1521 709 706 707 882 887 799 708 795 1515 1336 1256 792 892 704 1246 710 798 797 706 1244 980 972 1519 711 707 704 892 1253 1240 1246 887 1425 1251 1529 793 1524 793 1249 1156 708 1612 1153 1166 1069 708 703 1255 795 1247 1252 1523 1339 976 796 1245 1344 1076 793 1614 708 1240 708 1071 1248 1069 1061 1252 1074 1339 1240 1423 1423 702 1240 1425 1062 794 799 1069 1334 704 1160 796 1250 1244 704 1162 1160 1238 1064 703 702 1249 894 1245 1246 1335 1421 1422 1070 796 1162 1240 1242 1334 1072 1162 1245 795 1256 1432 1245

Tree=0
num_leaves=16
num_cat=0
split_feature=6 4 4 6 6 6 6 4 6 6 4 4 3 4 6
split_gain=1.01198 0.0173874 0.01487 0.00357933 0.00337142 0.00301513 0.00241893 0.00155737 0.00147816 0.00113075 0.00105629 0.00103766 0.000850027 0.000824815 0.000519279
threshold=1.0000000180025095e-35 -0.0075263805869920678 0.080215963543436478 1607.5502000370523 -4440.0774267297529 -5727.6568230854 2606.7371613882474 -0.31399990778461012 -908.91751088552303 -480.81599842392887 -0.32745953425976165 0.33194903954014465 49.988416989463914 -0.30793342569449461 811.34532927201974
decision_type=2 2 2 2 2 2 2 2 2 2 2 2 2 2 2
left_child=1 5 3 10 11 13 14 -5 -6 -7 -2 -3 -8 -1 -4
right_child=2 4 6 7 8 9 12 -9 -10 -11 -12 -13 -14 -15 -16
leaf_value=-0.0034964399972222753 -0.0012539480185235637 -0.002976468659243065 -0.00068493084206982689 -0.00073439615108672409 -0.0026893890411375269 -0.0031438383649459098 -0.00024646272441446746 -0.00052551038118100872 -0.0023536540618844682 -0.00274858873895937 -0.00085528447633435108 -0.0027558671756588706 -6.6209835122352798e-05 -0.0032842646852118285 -0.0003967475778800791
leaf_weight=86 24 149 22 145 138 190 136 232 43 20 54 83 126 98 54
leaf_count=86 24 149 22 145 138 190 136 232 43 20 54 83 126 98 54
internal_value=-0.00175154 -0.00299805 -0.000483027 -0.000669639 -0.00277136 -0.00323567 -0.000231817 -0.000605851 -0.00260963 -0.0031062 -0.00097795 -0.00289755 -0.000159776 -0.00338343 -0.000480169
internal_weight=1600 807 793 455 413 394 338 377 181 210 78 232 262 184 76
internal_count=1600 807 793 455 413 394 338 377 181 210 78 232 262 184 76
is_linear=0
shrinkage=1


Tree=1
num_leaves=16
num_cat=0
split_feature=6 4 4 6 6 6 6 6 4 6 4 4 3 4 3
split_gain=0.91331 0.0156921 0.0134202 0.00329601 0.00304271 0.00272116 0.00218309 0.00133404 0.00123184 0.0010205 0.000936484 0.000885221 0.000767149 0.000744396 0.000503674
threshold=1.0000000180025095e-35 -0.0075263805869920678 0.080215963543436478 3636.1056676598696 -4440.0774267297529 -5727.6568230854 2606.7371613882474 -908.91751088552303 -0.2542813545681254 -480.81599842392887 0.33194903954014465 -0.29840790126964784 49.988416989463914 -0.30793342569449461 45.79930299746065
decision_type=2 2 2 2 2 2 2 2 2 2 2 2 2 2 2
left_child=1 5 3 8 10 13 14 -6 -2 -7 -3 -5 -8 -1 -4
right_child=2 4 6 11 7 9 12 -9 -10 -11 -12 -13 -14 -15 -16
leaf_value=-0.0016576534819377716 0.00069559517625594704 -0.0011636806873842173 0.0010647423565387727 0.0010266160569354442 -0.00089095501057074764 -0.0013226818912172398 0.0014298249785925318 -0.0005720067937143667 0.00096737793984976806 -0.00094719474902376548 -0.00095410924460963319 0.001206421063554858 0.0016010652155807568 -0.0014560869011115663 0.0013236157152624359
leaf_weight=86 71 149 34 116 138 190 136 43 101 20 83 167 126 98 42
leaf_count=86 71 149 34 116 138 190 136 43 101 20 83 167 126 98 42
internal_value=-1.20665e-11 -0.00118418 0.00120509 0.00102781 -0.000968832 -0.00140992 0.00144374 -0.000815183 0.000855189 -0.00128692 -0.0010887 0.00113272 0.00151218 -0.0015503 0.0012078
internal_weight=1600 807 793 455 413 394 338 181 172 210 232 283 262 184 76
internal_count=1600 807 793 455 413 394 338 181 172 210 232 283 262 184 76
is_linear=0
shrinkage=0.05


Tree=2
num_leaves=16
num_cat=0
split_feature=6 4 4 6 6 6 6 4 6 4 4 4 4 3 6
split_gain=0.824262 0.0141621 0.0121117 0.00304724 0.00274605 0.00248313 0.00197024 0.0012952 0.00120397 0.00109054 0.00089469 0.000845177 0.000759465 0.000726559 0.000471039
threshold=1.0000000180025095e-35 -0.0075263805869920678 0.080215963543436478 1607.5502000370523 -4440.0774267297529 -3335.9564687810321 2606.7371613882474 -0.23242856643735385 -908.91751088552303 -0.16809266458747754 -0.32745953425976165 0.33194903954014465 0.31044156079406221 67.061455932142948 811.34532927201974
decision_type=2 2 2 2 2 2 2 2 2 2 2 2 2 2 2
left_child=1 5 3 10 11 9 14 -5 -6 -1 -2 -3 -8 -7 -4
right_child=2 4 6 7 8 13 12 -9 -10 -11 -12 -13 -14 -15 -16
leaf_value=-0.0014919806001407485 0.00043793420030245519 -0.0011054966028392215 0.00095239461568946194 0.00093985227110943278 -0.00084640724808855011 -0.0012236463766464073 0.0013403222300922095 0.0011252836170654321 -0.00054340646338248415 -0.0012885468538911008 0.00080483696888054347 -0.00090640381382531439 0.0015118628360179008 -0.00094375901765400376 0.0012268660133014676
leaf_weight=186 24 149 22 183 138 92 115 194 43 85 54 83 147 31 54
leaf_count=186 24 149 22 183 138 92 115 194 43 85 54 83 147 31 54
internal_value=-9.8089e-13 -0.00112497 0.00114483 0.000976417 -0.00092039 -0.00133942 0.00137155 0.00103527 -0.000774424 -0.00142399 0.000691944 -0.00103427 0.00143657 -0.00115311 0.00114741
internal_weight=1600 807 793 455 413 394 338 377 181 271 78 232 262 123 76
internal_count=1600 807 793 455 413 394 338 377 181 271 78 232 262 123 76
is_linear=0
shrinkage=0.05


Tree=3
num_leaves=16
num_cat=0
split_feature=6 4 4 6 6 6 6 4 4 6 4 4 4 3 3
split_gain=0.743848 0.0128172 0.0109308 0.00280087 0.00266598 0.00237342 0.00177858 0.00168279 0.00102387 0.000842741 0.000754839 0.000741162 0.000538717 0.000531191 0.000451546
threshold=1.0000000180025095e-35 -0.068949572139070811 0.080215963543436478 3636.1056676598696 -908.91751088552303 -5727.6568230854 2436.8703819750531 0.49821148155291667 -0.2542813545681254 -1005.9455663755544 -0.38149196418357129 0.26823277495837317 0.29604289534926626 42.972973258781458 66.582074823080134
decision_type=2 2 2 2 2 2 2 2 2 2 2 2 2 2 2
left_child=1 5 3 8 7 14 13 -3 -2 -7 -5 -8 -6 -4 -1
right_child=2 4 6 10 12 9 11 -9 -10 -11 -12 -13 -14 -15 -16
leaf_value=-0.0014839699271282083 0.00062297151098519724 -0.00097989982080001108 0.00092520193992963722 0.00089862109834073296 -0.00071788118995755215 -0.0012222592226199566 0.0012578279285942419 -0.00072739718328829021 0.00087075160112056772 -0.00095951204911168481 0.0010773621271387792 0.0014286608992293021 -0.00036972687486559156 0.001200950875063427 -0.0013084501286761629
leaf_weight=114 71 325 31 84 20 155 104 76 101 38 199 163 25 40 54
leaf_count=114 71 325 31 84 20 155 104 76 101 38 199 163 25 40 54
internal_value=3.54442e-08 -0.00106865 0.00108759 0.000927596 -0.000889381 -0.00129014 0.00130297 -0.000930332 0.00076847 -0.00117053 0.00102431 0.00136212 -0.000524462 0.00108055 -0.00142755
internal_weight=1600 807 793 455 446 361 338 401 172 193 283 267 45 71 168
internal_count=1600 807 793 455 446 361 338 401 172 193 283 267 45 71 168
is_linear=0
shrinkage=0.05


Tree=4
num_leaves=16
num_cat=0
split_feature=6 4 4 6 6 6 6 4 4 4 4 4 3 3 6
split_gain=0.671295 0.0115885 0.00986505 0.00259434 0.00237684 0.00210769 0.00161185 0.00107977 0.000965625 0.000960629 0.000758271 0.00070738 0.000688613 0.000586829 0.000422635
threshold=1.0000000180025095e-35 -0.0075263805869920678 0.080215963543436478 1607.5502000370523 -4440.0774267297529 -2397.7985691244976 2606.7371613882474 -0.23242856643735385 0.12926777657857569 -0.16809266458747754 -0.32745953425976165 0.33194903954014465 49.988416989463914 32.97989504716309 811.34532927201974
decision_type=2 2 2 2 2 2 2 2 2 2 2 2 2 2 2
left_child=1 5 3 10 11 9 14 -5 -6 -1 -2 -3 -8 -7 -4
right_child=2 4 6 7 8 13 12 -9 -10 -11 -12 -13 -14 -15 -16
leaf_value=-0.0013320195938770971 0.00038488891768793113 -0.0010012268327057811 0.00085036766143854368 0.00084839852213798486 -0.00081519052550444121 -0.0011363189107266942 0.0012186092218411538 0.0010177073149327382 -0.00061716627991305264 -0.0011382668916864889 0.00072266354626562043 -0.00081908566125455393 0.0013808475655784447 -0.00091987434356911662 0.0011103544155722138
leaf_weight=210 24 149 22 183 52 24 136 194 129 92 54 83 126 68 54
leaf_count=210 24 149 22 183 52 24 136 194 129 92 54 83 126 68 54
internal_value=5.51171e-08 -0.00101518 0.00103321 0.000881216 -0.000830117 -0.00120917 0.00123783 0.000935523 -0.000694317 -0.001273 0.000618733 -0.000936064 0.00129663 -0.000999642 0.0010351
internal_weight=1600 807 793 455 413 394 338 377 181 302 78 232 262 92 76
internal_count=1600 807 793 455 413 394 338 377 181 302 78 232 262 92 76
is_linear=0
shrinkage=0.05


Tree=5
num_leaves=16
num_cat=0
split_feature=6 4 4 6 6 6 6 4 4 3 6 3 4 4 3
split_gain=0.606068 0.0104737 0.00890321 0.00240386 0.00228115 0.0020292 0.00150367 0.00143285 0.00118289 0.000856479 0.000693469 0.000634475 0.000567946 0.000471665 0.000411174
threshold=1.0000000180025095e-35 -0.068949572139070811 0.080215963543436478 4500.6005380509423 -908.91751088552303 -5727.6568230854 4716.6329430777541 0.49821148155291667 -0.31399990778461012 44.201332845004906 -1005.9455663755544 62.779827061059812 0.2655066471754926 0.29604289534926626 66.582074823080134
decision_type=2 2 2 2 2 2 2 2 2 2 2 2 2 2 2
left_child=1 5 3 8 7 14 9 -3 -2 -4 -7 -5 -8 -6 -1
right_child=2 4 6 11 13 10 12 -9 -10 -11 -12 -13 -14 -15 -16
leaf_value=-0.0013458897915194956 0.00053688168257943244 -0.00088633849264946416 0.0009194278333765956 0.00088358117573495419 -0.00064614985138177882 -0.0011013237839084 0.0011608038767108989 -0.00065288571454774928 0.00079458878978422689 0.0011608038767108989 -0.00086297956724210002 0.0010514341437830085 0.0013335444875954353 -0.00032038222509436309 -0.0011784000701650426
leaf_weight=114 68 325 65 175 20 155 72 76 129 80 38 83 121 25 54
leaf_count=114 68 325 65 175 20 155 72 76 129 80 38 83 121 25 54
internal_value=-1.29232e-07 -0.000964781 0.000981553 0.000837155 -0.000802723 -0.001165 0.00117593 -0.000840604 0.000705634 0.00105426 -0.0010544 0.00093758 0.00126734 -0.000465168 -0.00129205
internal_weight=1600 807 793 455 446 361 338 401 197 145 193 258 193 45 168
internal_count=1600 807 793 455 446 361 338 401 197 145 193 258 193 45 168
is_linear=0
shrinkage=0.05


Tree=6
num_leaves=16
num_cat=0
split_feature=6 4 4 6 6 6 6 4 4 4 4 4 3 4 6
split_gain=0.546951 0.00952107 0.00803442 0.00222535 0.00206145 0.00193133 0.00136298 0.000936779 0.000809922 0.000685985 0.000657695 0.00063146 0.00059864 0.00048105 0.000383439
threshold=1.0000000180025095e-35 0.060853443357038593 0.080215963543436478 1607.5502000370523 -5727.6568230854 -2614.1980789441809 2606.7371613882474 -0.23242856643735385 -0.20591790615348468 -0.16809266458747754 0.28292096432736008 -0.32745953425976165 49.988416989463914 0.52978102586655862 811.34532927201974
decision_type=2 2 2 2 2 2 2 2 2 2 2 2 2 2 2
left_child=1 4 3 11 9 10 14 -5 -6 -1 -3 -2 -8 -7 -4
right_child=2 5 6 7 8 13 12 -9 -10 -11 -12 -13 -14 -15 -16
leaf_value=-0.0012630036346614362 0.00033880038123849471 -0.00087646605526470363 0.00075474633538926198 0.00076444336449182871 -0.0010615269063107139 -0.00059601398304924243 0.0010984520323451279 0.00092214376536034742 -0.0008780142857753875 -0.0010823840107054507 -0.00072004926556289411 0.00064703953652901379 0.0012497206340499577 -0.00032971247037494322 0.0010023839051697266
leaf_weight=125 24 131 22 183 126 74 136 194 115 76 138 54 126 22 54
leaf_count=125 24 131 22 183 126 74 136 194 115 76 138 54 126 22 54
internal_value=-1.07176e-07 -0.000916505 0.000932469 0.000795298 -0.00107257 -0.000727514 0.00111712 0.000845594 -0.000973959 -0.00119081 -0.000796222 0.000552197 0.0011712 -0.000534987 0.000930699
internal_weight=1600 807 793 455 442 365 338 377 241 201 269 78 262 96 76
internal_count=1600 807 793 455 442 365 338 377 241 201 269 78 262 96 76
is_linear=0
shrinkage=0.05


Tree=7
num_leaves=16
num_cat=0
split_feature=6 4 4 6 6 6 6 4 6 3 4 4 3 4 4
split_gain=0.493596 0.00858811 0.00725107 0.00206172 0.00185694 0.00176437 0.00127262 0.000989178 0.000754257 0.000754235 0.000730955 0.000638348 0.000568096 0.000521505 0.000511534
threshold=1.0000000180025095e-35 0.060853443357038593 0.080215963543436478 4500.6005380509423 -5727.6568230854 -5045.4363803264414 4716.6329430777541 -0.31399990778461012 -769.26111253166948 44.201332845004906 -0.20591790615348468 -0.30793342569449461 62.779827061059812 0.49821148155291667 0.2655066471754926
decision_type=2 2 2 2 2 2 2 2 2 2 2 2 2 2 2
left_child=1 4 3 7 11 13 9 -2 -7 -4 -6 -1 -5 -3 -8
right_child=2 5 6 12 10 8 14 -9 -10 -11 -12 -13 -14 -15 -16
leaf_value=-0.0012341125852016863 0.00047941309663549283 -0.00085076770958856802 0.00082276081164868974 0.0007974402075633406 -0.0010084505518159223 -0.00063087198311247475 0.0010473474099013599 0.00071507590922595605 -0.00037277052104140503 0.0010473474099013599 -0.00083411356856864273 -0.0010540188757864678 0.00095627024175083068 -0.00069143935614576464 0.0012082567130608009
leaf_weight=86 68 138 65 175 126 148 72 129 35 80 115 115 83 44 121
leaf_count=86 68 138 65 175 126 148 72 129 35 80 115 115 83 44 121
internal_value=-7.7317e-08 -0.000870631 0.000885845 0.000755533 -0.00101885 -0.000691138 0.00106127 0.00063373 -0.000581508 0.000949334 -0.000925261 -0.00113107 0.000848537 -0.00080137 0.00114536
internal_weight=1600 807 793 455 442 365 338 197 183 145 241 201 258 182 193
internal_count=1600 807 793 455 442 365 338 197 183 145 241 201 258 182 193
is_linear=0
shrinkage=0.05


Tree=8
num_leaves=16
num_cat=0
split_feature=6 4 4 6 6 6 6 4 4 4 4 3 4 7 3
split_gain=0.445399 0.00779936 0.00654297 0.00190877 0.00178499 0.00158123 0.00115622 0.000920678 0.000817745 0.000618424 0.000580443 0.000568683 0.000525767 0.00050317 0.000402811
threshold=1.0000000180025095e-35 -0.068949572139070811 0.080215963543436478 1607.5502000370523 -2614.1980789441809 -3548.0286952646252 2436.8703819750531 0.28292096432736008 -0.31399990778461012 0.29604289534926626 0.31044156079406221 67.061455932142948 -0.32745953425976165 -4.4044873411009462 42.972973258781458
decision_type=2 2 2 2 2 2 2 2 2 2 2 2 2 2 2
left_child=1 5 3 12 7 13 14 -3 -5 -6 -8 -7 -2 -1 -4
right_child=2 4 6 8 9 11 10 -9 -10 -11 -12 -13 -14 -15 -16
leaf_value=-0.0012343378022040537 0.00029788970859954137 -0.00081660394271663181 0.00069356424576272411 0.0006711910962195393 -0.00062652248039948529 -0.00091524964046457366 0.00097239273102778907 -0.00064747434575954273 0.00082255479983046073 -0.00039419521680328124 0.0011209749658592045 -0.00066489508220305045 0.00057915196325834751 -0.0010418112336558663 0.00093369018490193408
leaf_weight=41 24 193 31 145 61 93 117 138 232 54 150 30 54 197 40
leaf_count=41 24 193 31 145 61 93 117 138 232 54 150 30 54 197 40
internal_value=-1.68067e-08 -0.000826977 0.000841543 0.000717756 -0.000687131 -0.00099975 0.00100818 -0.000746091 0.000764338 -0.00051743 0.00105587 -0.000854188 0.00049261 -0.00107498 0.000828846
internal_weight=1600 807 793 455 446 361 338 331 377 115 267 123 78 238 71
internal_count=1600 807 793 455 446 361 338 331 377 115 267 123 78 238 71
is_linear=0
shrinkage=0.05


Tree=9
num_leaves=16
num_cat=0
split_feature=6 4 4 6 6 6 6 4 6 6 6 4 3 4 4
split_gain=0.401973 0.00705915 0.00590503 0.00176722 0.00155631 0.00149433 0.001103 0.000832286 0.000636639 0.000636544 0.000635249 0.000546429 0.000509228 0.000453408 0.000435331
threshold=1.0000000180025095e-35 0.060853443357038593 0.080215963543436478 4500.6005380509423 -5727.6568230854 -5045.4363803264414 6644.6298884741636 -0.2542813545681254 811.34532927201974 -1005.9455663755544 -769.26111253166948 -0.30793342569449461 62.779827061059812 0.49821148155291667 0.26823277495837317
decision_type=2 2 2 2 2 2 2 2 2 2 2 2 2 2 2
left_child=1 4 3 7 11 13 8 -2 -4 -6 -7 -1 -5 -3 -8
right_child=2 5 6 12 9 10 14 -9 -10 -11 -12 -13 -14 -15 -16
leaf_value=-0.0011180777338246793 0.00044349675843339447 -0.00077052432077808603 0.00062746262701693931 0.00071959746683361516 -0.00087219598738951713 -0.00056730551083042835 0.00097238758927586173 0.00065319023808608448 0.00091293141568325796 -0.00065995656640193063 -0.00033043948093628778 -0.00095145410918833113 0.00086997331867656529 -0.00062317255226802283 0.0011323437220259998
leaf_weight=86 79 138 22 175 198 148 53 118 174 43 35 115 83 44 89
leaf_count=86 79 138 22 175 198 148 53 118 174 43 35 115 83 44 89
internal_value=-1.59639e-08 -0.000785628 0.000799465 0.000681868 -0.000920011 -0.000622895 0.000957769 0.0005691 0.000880889 -0.000834328 -0.000522003 -0.00102275 0.000767974 -0.000724342 0.00106389
internal_weight=1600 807 793 455 442 365 338 197 196 241 183 201 258 182 142
internal_count=1600 807 793 455 442 365 338 197 196 241 183 201 258 182 142
is_linear=0
shrinkage=0.05


Tree=10
num_leaves=16
num_cat=0
split_feature=6 4 4 6 6 6 4 6 3 3 3 7 4 4 4
split_gain=0.362685 0.00645781 0.00532181 0.00163363 0.00148826 0.0013061 0.000998764 0.000990452 0.000729975 0.000579837 0.000517826 0.000446087 0.000442647 0.000399293 0.000355413
threshold=1.0000000180025095e-35 -0.068949572139070811 0.080215963543436478 1607.5502000370523 -908.91751088552303 -3548.0286952646252 0.50513857481684765 6644.6298884741636 64.502739818964287 69.044086804504985 67.061455932142948 -1.3987663895577542 -0.32745953425976165 0.24593842528967627 0.32753452920225906
decision_type=2 2 2 2 2 2 2 2 2 2 2 2 2 2 2
left_child=1 5 3 12 6 11 -3 9 -5 -4 -7 -1 -2 -9 -6
right_child=2 4 7 8 14 10 -8 13 -10 -11 -12 -13 -14 -15 -16
leaf_value=-0.0010572850619072235 0.00026082039087971985 -0.00068723248312475317 0.00078577796834847571 0.00064706995607627545 -0.00047200706670992077 -0.00082941467685046641 -0.00049794870251949723 0.00092354930416734026 0.00080138953510349809 0.00092354930416734026 -0.00059051665225221461 -0.0009169899248357478 0.00051889397708927633 0.001072587342231825 -0.00018922106959507802
leaf_weight=93 24 327 154 270 25 93 74 49 107 42 30 145 54 93 20
leaf_count=93 24 327 154 270 25 93 74 49 107 42 30 145 54 93 20
internal_value=6.03315e-09 -0.000746227 0.000759414 0.000647775 -0.000618976 -0.000903441 -0.000649573 0.000909697 0.000690869 0.000836845 -0.000771147 -0.000971811 0.000439487 0.00101025 -0.000346324
internal_weight=1600 807 793 455 446 361 401 338 377 196 123 238 78 142 45
internal_count=1600 807 793 455 446 361 401 338 377 196 123 238 78 142 45
is_linear=0
shrinkage=0.05


Tree=11
num_leaves=16
num_cat=0
split_feature=6 4 4 6 6 6 6 4 4 6 3 4 4 3 3
split_gain=0.327369 0.00583346 0.00481822 0.00150772 0.00138909 0.00120137 0.000909758 0.000734351 0.000717295 0.000530143 0.000512353 0.000487842 0.000458575 0.000357456 0.000354757
threshold=1.0000000180025095e-35 -0.068949572139070811 0.080215963543436478 4500.6005380509423 -2614.1980789441809 -6039.9424727210335 2436.8703819750531 0.28292096432736008 -0.2542813545681254 -1005.9455663755544 69.615794113597858 0.33714515258687211 -0.38149196418357129 42.972973258781458 66.582074823080134
decision_type=2 2 2 2 2 2 2 2 2 2 2 2 2 2 2
left_child=1 5 3 8 7 14 13 -3 -2 -7 -8 -6 -5 -4 -1
right_child=2 4 6 12 11 9 10 -9 -10 -11 -12 -13 -14 -15 -16
leaf_value=-0.0010154390848189031 0.0003946220027385987 -0.00070289172804576634 0.00057809446889516567 0.00060307255783969855 -0.00052076973935722239 -0.00081729642682018631 0.00087122633993643296 -0.00055184282932516559 0.00058929132104267251 -0.00061049490660049124 0.0010413540718478284 -0.00030975974695239631 0.00073932064892255893 0.00080429807778273257 -0.00087128525693428967
leaf_weight=106 79 193 31 79 70 168 211 138 118 38 56 45 179 40 49
leaf_count=106 79 193 31 79 70 168 211 138 118 38 56 45 179 40 49
internal_value=1.23502e-07 -0.000708848 0.000721612 0.000615386 -0.000587905 -0.000858269 0.000864608 -0.000639917 0.000511226 -0.000779149 0.000906909 -0.000438201 0.000694919 0.000705533 -0.000963422
internal_weight=1600 807 793 455 446 361 338 331 197 206 267 115 258 71 155
internal_count=1600 807 793 455 446 361 338 331 197 206 267 115 258 71 155
is_linear=0
shrinkage=0.05


Tree=12
num_leaves=14
num_cat=0
split_feature=6 4 4 6 6 6 6 4 6 3 4 3 1
split_gain=0.295499 0.00513765 0.00412971 0.00164799 0.00144828 0.00116432 0.000952237 0.00080117 0.000724591 0.000694857 0.000484993 0.000425088 0.000301891
threshold=72.791323239575718 -0.0075263805869920678 0.050467201921610104 -480.81599842392887 -908.91751088552303 757.35787560309757 4500.6005380509423 0.54367903282151864 -6512.4423434220362 69.615794113597858 -0.24945702770277406 62.779827061059812 2.4924446444921666
decision_type=2 2 2 2 2 2 2 2 2 2 2 2 2
left_child=1 3 6 8 7 -4 10 -3 -1 -7 -2 -8 -6
right_child=2 4 5 -5 12 9 11 -9 -10 -11 -12 -13 -14
leaf_value=-0.00090028989072324654 0.00040829919541661354 -0.0006101022605009774 0.00046632879864112265 -0.00040266039874404673 -0.00016074523935094478 0.00080512949241083587 0.00060610217446148331 -0.00042678303803041863 -0.00076012565191790199 0.00098443739424350081 0.00057229713733942763 0.00074511148420974577 -0.00042137038748478516
leaf_weight=165 79 308 22 25 25 263 167 62 209 68 105 82 20
leaf_count=165 79 308 22 25 25 263 167 62 209 68 105 82 20
internal_value=1.26925e-07 -0.000667582 0.000691622 -0.000795691 -0.000544413 0.000818555 0.000588141 -0.000576987 -0.000821963 0.000841966 0.000501885 0.00065188 -0.000276579
internal_weight=1600 814 786 399 415 353 433 370 374 331 184 249 45
internal_count=1600 814 786 399 415 353 433 370 374 331 184 249 45
is_linear=0
shrinkage=0.05


Tree=13
num_leaves=16
num_cat=0
split_feature=6 4 4 6 6 6 6 3 4 0 4 4 3 4 3
split_gain=0.266713 0.00482 0.00392104 0.00129608 0.00121908 0.00108007 0.000848752 0.000644988 0.000639929 0.000539831 0.000529493 0.000468023 0.000373378 0.000341134 0.000312023
threshold=1.0000000180025095e-35 0.060853443357038593 0.085713291515791365 1607.5502000370523 -7402.338258867172 -6888.1491354511481 2901.2919019771684 64.502739818964287 -0.18328335621160344 39.980942792767927 0.43181058679724343 -0.41560546092983908 61.984592632036986 0.54367903282151864 62.491202517953845
decision_type=2 2 2 2 2 2 2 2 2 2 2 2 2 2 2
left_child=1 5 3 12 13 11 14 -5 -7 -6 -8 -1 -2 -3 -4
right_child=2 4 6 7 9 8 10 -9 -10 -11 -12 -13 -14 -15 -16
leaf_value=-0.0009791125914043919 0.00029445686081157031 -0.00067257402851334165 0.00057793564446294147 0.00055308250427693172 -0.0003852843602887659 -0.00075327962967656125 0.00077424281738085318 0.00069710812890286581 -0.00059683771796049511 -0.00053448277652572585 0.00092676932875871321 -0.00079658949154339019 0.00048251572630558863 -0.00053448277652572585 0.00073705082385963129
leaf_weight=49 54 106 59 271 159 157 161 109 112 79 88 124 24 21 27
leaf_count=49 54 106 59 271 159 157 161 109 112 79 88 124 24 21 27
internal_value=1.48286e-07 -0.000639781 0.000651375 0.000556288 -0.000505312 -0.000750824 0.000781376 0.000594395 -0.000688144 -0.000438562 0.000828148 -0.000848287 0.000370636 -0.000630404 0.000645954
internal_weight=1600 807 793 458 365 442 335 380 269 238 249 173 78 127 86
internal_count=1600 807 793 458 365 442 335 380 269 238 249 173 78 127 86
is_linear=0
shrinkage=0.05


Tree=14
num_leaves=14
num_cat=0
split_feature=6 4 4 6 6 6 6 3 6 4 3 6 3
split_gain=0.240808 0.00421179 0.0033829 0.00138503 0.00126652 0.000994859 0.000804251 0.00061236 0.000584619 0.000547684 0.000433997 0.00041461 0.000345843
threshold=72.791323239575718 -0.0075263805869920678 0.050467201921610104 -480.81599842392887 -4440.0774267297529 757.35787560309757 4500.6005380509423 69.615794113597858 -6888.1491354511481 0.57068217719004954 44.201332845004906 -13430.141621298008 62.779827061059812
decision_type=2 2 2 2 2 2 2 2 2 2 2 2 2
left_child=1 3 6 8 11 -4 10 -7 -1 -6 -2 -3 -8
right_child=2 4 5 -5 9 7 12 -9 -10 -11 -12 -13 -14
leaf_value=-0.00081564605783500204 0.00036403201904590789 -0.0007453796614346834 0.00041381285991519694 -0.00035815672236640242 -0.00042937163428324572 0.00072645845944938319 0.00054814293713087198 0.00089478598743238872 -0.00068908889514676522 -0.00018909275110802679 0.00051893526125031022 -0.00054327010449762984 0.0006735274271128086
leaf_weight=158 80 29 22 25 155 263 167 68 216 28 104 203 82
leaf_count=158 80 29 22 25 155 263 167 68 216 28 104 203 82
internal_value=2.82884e-07 -0.000602477 0.000624515 -0.000718469 -0.000490957 0.000739399 0.000530857 0.000761039 -0.000742554 -0.000392608 0.000451586 -0.000568534 0.000589434
internal_weight=1600 814 786 399 415 353 433 331 374 183 184 232 249
internal_count=1600 814 786 399 415 353 433 331 374 183 184 232 249
is_linear=0
shrinkage=0.05


Tree=15
num_leaves=15
num_cat=0
split_feature=6 4 4 6 4 3 6 6 4 3 6 6 4 3
split_gain=0.217529 0.00375041 0.00303406 0.00215561 0.00117978 0.000965312 0.000950007 0.000715699 0.000670724 0.000642761 0.000450888 0.000442373 0.000395053 0.000267676
threshold=-52.644941549201661 -0.16809266458747754 0.030936282508309727 694.50123971480627 0.29343145335614068 60.946809139762884 3556.1965895622425 -2397.7985691244976 0.31044156079406221 41.675279441923557 -13430.141621298008 -4869.0148751393945 -0.38149196418357129 39.715672192394123
decision_type=2 2 2 2 2 2 2 2 2 2 2 2 2 2
left_child=1 7 6 -4 5 -3 9 10 -5 -2 -1 -6 -8 -9
right_child=2 4 3 8 11 -7 12 13 -10 -11 -12 -13 -14 -15
leaf_value=-0.00095343338926472977 0.00026971704696257629 -0.00061335414806993954 0.00025722563786311419 0.00064955337910593304 -0.00047867162909015964 -0.00043438301297785343 0.00047265266747979485 -0.00067883414028626059 0.00078844045202362269 0.00047265266747979485 -0.00074689227922796148 -0.00032146365647145361 0.00059206645441491111 -0.00049803368155180224
leaf_weight=31 62 244 27 169 90 109 85 21 179 96 179 89 181 38
leaf_count=31 62 244 27 169 90 109 85 21 179 96 179 89 181 38
internal_value=2.68742e-07 -0.000582002 0.000583997 0.000687601 -0.000505069 -0.000558091 0.000492367 -0.000734153 0.000720992 0.000395257 -0.000777382 -0.000400507 0.000550048 -0.000580287
internal_weight=1600 801 799 375 532 353 424 269 348 158 210 179 266 59
internal_count=1600 801 799 375 532 353 424 269 348 158 210 179 266 59
is_linear=0
shrinkage=0.05


Tree=16
num_leaves=15
num_cat=0
split_feature=6 4 4 6 6 6 6 4 4 0 3 7 3 4
split_gain=0.196328 0.00342289 0.00274101 0.00179011 0.00105142 0.000947939 0.000825889 0.000754358 0.000690869 0.000672992 0.000482905 0.000435942 0.000351255 0.000312084
threshold=-52.644941549201661 0.071900341475748877 1.0000000180025095e-35 694.50123971480627 4500.6005380509423 -7402.338258867172 -2522.9406637007387 0.26823277495837317 -0.16809266458747754 40.836904527730333 41.675279441923557 1.5107899512489793 61.770568989847447 0.54367903282151864
decision_type=2 2 2 2 2 2 2 2 2 2 2 2 2 2
left_child=1 6 4 -4 10 13 8 -5 -1 -7 -2 -8 -6 -3
right_child=2 5 3 7 12 9 11 -9 -10 -11 -12 -13 -14 -15
leaf_value=-0.000738267100532889 0.00026907807993363048 -0.00058708464870488189 0.00026090610980255798 0.00060153999989981659 0.00048674035610376349 -0.00030840169601470136 -0.0004412282716130258 0.00074348526322491799 -0.00060122061778474292 -0.00045842107433422203 0.00043962586252226701 -0.00060122061778474292 0.0006178569333897964 -0.00045842107433422203
leaf_weight=208 72 103 28 180 148 148 69 195 140 73 98 39 78 21
leaf_count=208 72 103 28 180 148 148 69 195 140 73 98 39 78 21
internal_value=2.01264e-07 -0.000552968 0.000554755 0.000646556 0.000461332 -0.000434139 -0.000642872 0.000675352 -0.000680358 -0.000372057 0.000367394 -0.000522083 0.000531993 -0.000544785
internal_weight=1600 801 799 403 396 345 456 375 348 221 170 108 226 124
internal_count=1600 801 799 403 396 345 456 375 348 221 170 108 226 124
is_linear=0
shrinkage=0.05


Tree=17
num_leaves=15
num_cat=0
split_feature=6 4 4 6 6 3 6 4 6 7 7 3 1 7
split_gain=0.177372 0.00319163 0.00254832 0.0010917 0.000989567 0.000909387 0.000923614 0.000630254 0.000559661 0.00053266 0.000403208 0.000350643 0.00022149 0.000138624
threshold=72.791323239575718 -0.068949572139070811 0.26823277495837317 -908.91751088552303 -480.81599842392887 61.770568989847447 3556.1965895622425 0.54367903282151864 9868.8063368923667 -6.8982479157481622 -3.6131716417126332 27.011021283937009 2.4924446444921666 0.71243240124807772
decision_type=2 2 2 2 2 2 2 2 2 2 2 2 2 2
left_child=1 4 5 7 9 6 -2 -3 11 -1 -7 -4 -5 -10
right_child=2 3 8 12 -6 10 -8 -9 13 -11 -12 -13 -14 -15
leaf_value=-0.00089841228676959875 0.00033405484473537336 -0.00048144465604215618 0.00049697845613536626 -0.00010629383978084662 -0.00030922893034268943 0.00042034666609676633 0.00049578539730163712 -0.00032706517632107496 0.00075190700357779866 -0.00063250773263819082 0.00060328410209921812 0.00068188212952276965 -0.00032582632280536927 0.0009318954361926603
leaf_weight=20 138 339 32 27 23 37 245 62 20 323 162 129 20 23
leaf_count=20 138 339 32 27 23 37 245 62 20 323 162 129 20 23
internal_value=1.25576e-07 -0.000517185 0.000535865 -0.000427697 -0.000626723 0.000482563 0.000437512 -0.000454418 0.000687931 -0.000648012 0.000569271 0.000645131 -0.000199712 0.00084818
internal_weight=1600 814 786 448 366 582 383 401 204 343 199 161 47 43
internal_count=1600 814 786 448 366 582 383 401 204 343 199 161 47 43
is_linear=0
shrinkage=0.05


Tree=18
num_leaves=14
num_cat=0
split_feature=6 4 4 6 6 6 3 3 6 3 3 6 3
split_gain=0.160053 0.00289345 0.00233149 0.00122075 0.000983658 0.000816001 0.000623561 0.000548521 0.000539954 0.000510253 0.000477284 0.000388104 0.000360114
threshold=72.791323239575718 -0.095305883505407321 0.030936282508309727 -2614.1980789441809 694.50123971480627 -480.81599842392887 37.479184142206883 64.502739818964287 3556.1965895622425 72.629123596982268 61.984592632036986 11589.210237107349 69.044086804504985
decision_type=2 2 2 2 2 2 2 2 2 2 2 2 2
left_child=1 5 7 6 -4 10 -3 8 -2 -6 -1 -9 -5
right_child=2 3 4 12 9 -7 -8 11 -10 -11 -12 -13 -14
leaf_value=-0.00067218777886531847 0.00030434370336651401 -0.00055124755853292547 0.00026829379772347502 -0.00031624330131578093 0.00059359324590457568 -0.00030159052486331868 -0.0004113402065112507 0.00047567728322565948 0.00044369425005018174 0.00075605058890028767 -0.00054596975813362163 0.00070806362200528385 -9.30040014447348e-05
leaf_weight=194 111 121 21 101 290 21 233 98 186 58 122 22 22
leaf_count=194 111 121 21 101 290 21 233 98 186 58 122 22 22
internal_value=1.5886e-07 -0.000491248 0.000509072 -0.000412012 0.000600616 -0.000603401 -0.000459162 0.000428065 0.000391614 0.000620669 -0.000623458 0.000518281 -0.000276314
internal_weight=1600 814 786 477 369 337 354 417 297 348 316 120 123
internal_count=1600 814 786 477 369 337 354 417 297 348 316 120 123
is_linear=0
shrinkage=0.05


Tree=19
num_leaves=15
num_cat=0
split_feature=6 4 4 6 6 6 6 4 3 0 4 3 4 4
split_gain=0.14456 0.00265293 0.00210899 0.00132492 0.000796595 0.000784682 0.000678527 0.000575998 0.000475103 0.000466602 0.000425708 0.00038181 0.000329484 0.000324
threshold=-52.644941549201661 0.11871776787094722 1.0000000180025095e-35 694.50123971480627 4500.6005380509423 -6222.4637554044048 -5937.1380278486968 0.31044156079406221 46.017866265731406 40.836904527730333 -0.18328335621160344 41.675279441923557 -0.38149196418357129 0.53834280251400723
decision_type=2 2 2 2 2 2 2 2 2 2 2 2 2 2
left_child=1 5 4 -4 11 8 13 -5 -1 -8 -7 -2 -6 -3
right_child=2 6 3 7 12 10 9 -9 -10 -11 -12 -13 -14 -15
leaf_value=-0.0007145238313737705 0.00022487437747966194 -0.00048710938546787908 0.00022475408813988907 0.00052208729459231784 0.00038393081487045366 -0.00055153729629838812 -0.00022784909279575266 0.00064615012767549752 -0.00055931324152749893 -0.00036458355277945088 -0.00043033180858311165 0.00037652313123024734 0.0005000898296527469 -0.00036458355277945088
leaf_weight=81 72 106 28 196 79 149 112 179 126 53 141 98 147 33
leaf_count=81 72 106 28 196 79 149 112 179 126 53 141 98 147 33
internal_value=1.50916e-07 -0.000474519 0.000476009 0.000556534 0.000394061 -0.000545686 -0.000358171 0.000581307 -0.000620048 -0.00028961 -0.000492606 0.000312295 0.000455566 -0.000439558
internal_weight=1600 801 799 403 396 497 304 375 207 165 290 170 226 139
internal_count=1600 801 799 403 396 497 304 375 207 165 290 170 226 139
is_linear=0
shrinkage=0.05


Tree=20
num_leaves=16
num_cat=0
split_feature=6 4 4 6 7 4 6 4 6 4 6 4 3 3 7
split_gain=0.130464 0.00241493 0.00194333 0.000953483 0.000780914 0.000741371 0.000706936 0.000596619 0.000486698 0.000468718 0.000395523 0.000391971 0.000306104 0.000285684 0.000123298
threshold=72.791323239575718 -0.16809266458747754 0.26823277495837317 -5937.1380278486968 -2.7287153327295894 -0.5762928025198607 -2397.7985691244976 0.12926777657857569 9868.8063368923667 0.25831539353661975 -13430.141621298008 -0.18917654250391153 27.011021283937009 38.102838912997726 0.71243240124807772
decision_type=2 2 2 2 2 2 2 2 2 2 2 2 2 2 2
left_child=1 6 4 9 11 -6 10 -5 12 -3 -1 -2 -4 -8 -10
right_child=2 3 8 7 5 -7 13 -9 14 -11 -12 -13 -14 -15 -16
leaf_value=-0.0007737533932912254 0.00021156572729523761 -0.00051664538786363469 0.00041403019342851622 -0.00039091819046555888 0.0002629500346042083 0.00046932260759447456 -0.0005133802288383734 -0.0002581036072452089 0.00065101007348857822 -0.00039091819046555888 -0.00058030820862707479 0.0003797615740442653 0.00058679206202270527 -0.0003360975991576774 0.00082075788801454989
leaf_weight=31 58 141 32 143 49 389 22 162 20 95 179 86 129 41 23
leaf_count=31 58 141 32 143 49 389 22 162 20 95 179 86 129 41 23
internal_value=1.03904e-07 -0.00044356 0.000459573 -0.000382382 0.000413026 0.000446235 -0.000564795 -0.000323993 0.000592367 -0.000457843 -0.000608864 0.000312016 0.000552454 -0.000417896 0.000741805
internal_weight=1600 814 786 541 582 438 273 305 204 236 210 144 161 63 43
internal_count=1600 814 786 541 582 438 273 305 204 236 210 144 161 63 43
is_linear=0
shrinkage=0.05


Tree=21
num_leaves=15
num_cat=0
split_feature=6 4 4 6 6 6 6 0 4 4 3 3 4 4
split_gain=0.117908 0.00217311 0.00175773 0.00111164 0.000694563 0.000641373 0.000541871 0.000526621 0.000511405 0.000470299 0.000456841 0.000332256 0.000279161 0.000229852
threshold=-52.644941549201661 0.11871776787094722 1.0000000180025095e-35 694.50123971480627 4500.6005380509423 -3335.9564687810321 -7402.338258867172 40.836904527730333 -0.41560546092983908 0.40924392578000374 72.514845520905979 41.675279441923557 -0.38149196418357129 0.54367903282151864
decision_type=2 2 2 2 2 2 2 2 2 2 2 2 2 2
left_child=1 5 4 -4 11 8 13 -8 -1 -5 -7 -2 -6 -3
right_child=2 6 3 9 12 10 7 -9 -10 -11 -12 -13 -14 -15
leaf_value=-0.00063191592339779913 0.00019713066643210674 -0.00045797465577968125 0.00019945467469629615 0.00048693000347171505 0.00034557214088765651 -0.00044693494224769964 -0.0002138295052062139 -0.00034449455995689968 -0.00049412162675700354 0.00060619685691932785 -0.00021424609364476053 0.00033859655078249864 0.00045339866879088865 -0.00034449455995689968
leaf_weight=93 72 85 28 252 79 135 134 64 244 123 25 98 147 21
leaf_count=93 72 85 28 252 79 135 134 64 244 123 25 98 147 21
internal_value=8.54668e-08 -0.0004286 0.000429844 0.000503358 0.000355031 -0.000493011 -0.000323299 -0.000274456 -0.000532148 0.00052605 -0.000410577 0.000278682 0.000412463 -0.000414533
internal_weight=1600 801 799 403 396 497 304 198 337 375 160 170 226 106
internal_count=1600 801 799 403 396 497 304 198 337 375 160 170 226 106
is_linear=0
shrinkage=0.05


Tree=22
num_leaves=14
num_cat=0
split_feature=6 4 4 6 3 4 6 6 4 6 7 5 4
split_gain=0.106423 0.00200414 0.00158844 0.00100325 0.000730304 0.000825417 0.000626624 0.000495871 0.000427421 0.000421635 0.000415197 0.00030188 0.000296571
threshold=-52.644941549201661 -0.16809266458747754 1.0000000180025095e-35 694.50123971480627 32.740846373135732 0.58327101870303 3556.1965895622425 -13430.141621298008 0.26823277495837317 -9394.7266568378145 3.0525394699170709 1.1696376858537409 -0.38149196418357129
decision_type=2 2 2 2 2 2 2 2 2 2 2 2 2
left_child=1 7 6 -4 9 -6 11 -1 -5 -3 -9 -2 -8
right_child=2 4 3 8 5 -7 12 10 -10 -11 -12 -13 -14
leaf_value=-0.00070658141311498424 0.0002064220728209206 -0.00064309361319907991 0.0001894819424965785 0.00044418687845690228 -0.00034131491448048537 -0.00011128266921580442 0.00032042093449173993 -0.00045910109086478885 0.00055103336714240961 -0.00040970548771674363 -0.00060028195330824553 0.00032042093449173993 0.0004250823846122352
leaf_weight=31 106 23 28 180 343 44 85 187 195 122 51 41 164
leaf_count=31 106 23 28 180 343 44 85 187 195 122 51 41 164
internal_value=1.39132e-08 -0.000407259 0.000408306 0.00047819 -0.00035102 -0.000315161 0.000337187 -0.000518483 0.000499747 -0.000446726 -0.000493982 0.000255328 0.000385514
internal_weight=1600 801 799 403 532 387 396 269 375 145 238 147 249
internal_count=1600 801 799 403 532 387 396 269 375 145 238 147 249
is_linear=0
shrinkage=0.05


Tree=23
num_leaves=16
num_cat=0
split_feature=6 4 4 7 6 6 4 3 6 3 3 3 1 7 5
split_gain=0.0961178 0.00183936 0.00143924 0.000698176 0.000680391 0.000632332 0.000610649 0.000486574 0.000426131 0.000422153 0.000351817 0.000270126 0.000193128 0.000110188 0.000109871
threshold=72.791323239575718 -0.0075263805869920678 0.26823277495837317 -2.7287153327295894 -908.91751088552303 -1005.9455663755544 -0.59074345935714245 32.740846373135732 9868.8063368923667 61.984592632036986 73.127816611036749 27.011021283937009 2.4924446444921666 0.71243240124807772 1.0429710453629999
decision_type=2 2 2 2 2 2 2 2 2 2 2 2 2 2 2
left_child=1 5 3 10 7 9 -5 -3 11 -1 -2 -4 -6 -10 -7
right_child=2 4 8 6 12 14 -8 -9 13 -11 -12 -13 -14 -15 -16
leaf_value=-0.00052172884267988209 0.00022044194466647681 -0.0004223559067587999 0.00034130480167817725 0.00021746583205034162 -3.0524715024512263e-05 -0.00035397604612323147 0.00040646067883489404 -0.00029404074825766088 0.00056268522283062347 -0.00040864028541023759 0.00041791231095495665 0.00050359659994295397 -0.00022646179428799466 0.00072315485601353907 -0.00019737224820779548
leaf_weight=223 116 102 32 48 25 24 390 268 20 131 28 129 20 23 21
leaf_count=223 116 102 32 48 25 24 390 268 20 131 28 129 20 23 21
internal_value=2.75095e-08 -0.000380785 0.000394406 0.000354349 -0.000307087 -0.000457438 0.000385749 -0.000329414 0.000508686 -0.00047988 0.000258839 0.00047134 -0.000123509 0.000648518 -0.000280894
internal_weight=1600 814 786 582 415 399 438 370 204 354 144 161 45 43 45
internal_count=1600 814 786 582 415 399 438 370 204 354 144 161 45 43 45
is_linear=0
shrinkage=0.05


Tree=24
num_leaves=15
num_cat=0
split_feature=6 4 4 6 7 3 4 3 6 6 7 6 6 7
split_gain=0.0867948 0.00168616 0.00135274 0.00089992 0.000694187 0.000632335 0.000676026 0.000588177 0.000502503 0.000442728 0.000377461 0.000282413 0.000217282 0.000166556
threshold=-52.644941549201661 -0.16809266458747754 -0.23242856643735385 1725.8677488169913 -1.2847616332495189 68.429694096919306 0.28937077433137887 60.593851158816584 1906.717670172623 -13430.141621298008 3.0525394699170709 -3335.9564687810321 317.79878505111282 2.5088563568700608
decision_type=2 2 2 2 2 2 2 2 2 2 2 2 2 2
left_child=1 9 7 12 -5 6 -3 8 -2 -1 -11 -7 -4 -9
right_child=2 5 3 4 -6 11 -8 13 -10 10 -12 -13 -14 -15
leaf_value=-0.00064753711058367644 4.7816253122645676e-07 -0.00038994303087773902 0.00013209568831024671 0.00036084324064586826 0.00048501438567547086 -0.00026065532632568841 -0.00025749384663818954 0.00043026375281624495 0.00024523992932252498 -0.00041335545269404177 -0.00054709513103194695 -8.358627461575453e-05 0.00031191116799748545 0.00025953790580388161
leaf_weight=31 23 276 21 182 295 76 148 50 124 187 51 32 84 20
leaf_count=31 23 276 21 182 295 76 148 50 124 187 51 32 84 20
internal_value=1.78348e-08 -0.000367784 0.00036874 0.000408466 0.000437637 -0.000316199 -0.000343711 0.000262195 0.00020539 -0.000469803 -0.000446653 -0.00020819 0.000275948 0.000381485
internal_weight=1600 801 799 582 477 532 424 217 147 269 238 108 105 70
internal_count=1600 801 799 582 477 532 424 217 147 269 238 108 105 70
is_linear=0
shrinkage=0.05


Tree=25
num_leaves=15
num_cat=0
split_feature=6 4 4 3 6 6 6 0 3 6 5 7 3 7
split_gain=0.0783601 0.00165862 0.00131575 0.000734789 0.000667532 0.000546015 0.000539017 0.000410522 0.000391025 0.00037666 0.000315578 0.000314567 0.000242669 9.38556e-05
threshold=1.0000000180025095e-35 0.11871776787094722 0.26823277495837317 61.770568989847447 3556.1965895622425 -6222.4637554044048 -769.26111253166948 40.137849039212291 46.451103055143136 9868.8063368923667 1.1425972724125228 -3.6131716417126332 27.011021283937009 0.71243240124807772
decision_type=2 2 2 2 2 2 2 2 2 2 2 2 2 2
left_child=1 5 3 4 -2 8 7 -3 -1 12 -7 -5 -4 -11
right_child=2 6 9 11 -6 10 -8 -9 -10 13 -12 -13 -14 -15
leaf_value=-0.000550309009832279 0.00018957999985660639 -0.00023829868620454456 0.00030403732707782186 0.00026132824832284066 0.00032522896691094801 -0.00039516180900852125 -5.8129158291957272e-05 -0.00037106999686318848 -0.0004123104958962327 0.00051464623480569573 -0.00028381624264163313 0.00042281878281504699 0.00045785980635614122 0.00066274639305091752
leaf_weight=82 144 195 32 37 245 197 31 83 125 20 94 163 129 23
leaf_count=82 144 195 32 37 245 197 31 83 125 20 94 163 129 23
internal_value=-2.46981e-08 -0.000346887 0.000352961 0.000315058 0.000275014 -0.000403351 -0.000255887 -0.000277939 -0.000465426 0.000462398 -0.000359195 0.000392943 0.000427286 0.000593863
internal_weight=1600 807 793 589 389 498 309 278 207 204 291 200 161 43
internal_count=1600 807 793 589 389 498 309 278 207 204 291 200 161 43
is_linear=0
shrinkage=0.05


Tree=26
num_leaves=15
num_cat=0
split_feature=6 4 4 3 4 6 6 3 3 6 6 7 3 2
split_gain=0.070735 0.00145647 0.00117453 0.000696157 0.000631842 0.000552413 0.000466402 0.000421389 0.000369013 0.000336041 0.000317664 0.000281811 0.000268417 0.000146188
threshold=72.791323239575718 -0.16809266458747754 0.030936282508309727 74.243041791489205 0.29343145335614068 694.50123971480627 -2397.7985691244976 69.615794113597858 23.148110914864265 -3335.9564687810321 1607.5502000370523 -4.4044873411009462 38.102838912997726 9.8779821967733294
decision_type=2 2 2 2 2 2 2 2 2 2 2 2 2 2
left_child=1 6 8 4 -3 -4 11 -7 13 -5 -10 -1 -8 -2
right_child=2 3 5 9 -6 7 12 -9 10 -11 -12 -13 -14 -15
leaf_value=-0.00057792763976836936 7.4997594462426306e-05 -0.00034365856478044593 0.00015424202730563203 -0.00021081322948721581 -0.00022136179986349965 0.00039045461229571276 -0.00037908605643476929 0.00052698594845936335 0.00018390289825359876 5.8053427710362974e-06 0.00031732507071421099 -0.0004289817676649018 -0.00021905601654619142 0.00024459669014807636
leaf_weight=39 27 307 21 49 161 277 22 71 52 24 314 171 41 24
leaf_count=39 27 307 21 49 161 277 22 71 52 24 314 171 41 24
internal_value=-1.3436e-08 -0.000326696 0.000338307 -0.000279186 -0.000301586 0.000403282 -0.000420848 0.00041831 0.000280811 -0.000135575 0.000298369 -0.000456643 -0.000301529 0.000154809
internal_weight=1600 814 786 541 468 369 273 348 417 73 366 210 63 51
internal_count=1600 814 786 541 468 369 273 348 417 73 366 210 63 51
is_linear=0
shrinkage=0.05


Tree=27
num_leaves=15
num_cat=0
split_feature=6 4 4 6 3 4 7 3 6 6 7 6 6 7
split_gain=0.0639187 0.00130925 0.00111194 0.000703005 0.000569866 0.000655099 0.000506311 0.000483559 0.000400586 0.000372074 0.000343936 0.000341877 0.000239735 0.000153896
threshold=-52.644941549201661 -0.16809266458747754 -0.23242856643735385 2901.2919019771684 32.740846373135732 0.58327101870303 -1.2847616332495189 60.593851158816584 1906.717670172623 -13430.141621298008 3.0525394699170709 -9394.7266568378145 694.50123971480627 2.5088563568700608
decision_type=2 2 2 2 2 2 2 2 2 2 2 2 2 2
left_child=1 9 7 12 11 -6 -5 8 -2 -1 -11 -3 -4 -9
right_child=2 4 3 6 5 -7 -8 13 -10 10 -12 -13 -14 -15
leaf_value=-0.00056852047658345151 3.3909487315133064e-07 -0.00053159674156948156 0.00016481790414052907 0.00032572791558918432 -0.00026185629155748842 -5.6926234910034435e-05 0.00042917299331913291 0.00037481815833598377 0.00020406635218507527 -0.00035238883287734904 -0.00047644125393979831 -0.00032143925736371055 0.00030125772179455152 0.0002107088785942324
leaf_weight=31 23 23 44 154 343 44 264 50 124 187 51 122 120 20
leaf_count=31 23 23 44 154 343 44 264 50 124 187 51 122 120 20
internal_value=-5.5939e-08 -0.000315688 0.000316366 0.000352383 -0.000270233 -0.000238557 0.000386804 0.000219768 0.000168262 -0.000405585 -0.000384362 -0.000354775 0.000264652 0.00032793
internal_weight=1600 801 799 582 532 387 418 217 147 269 238 145 164 70
internal_count=1600 801 799 582 532 387 418 217 147 269 238 145 164 70
is_linear=0
shrinkage=0.05


Tree=28
num_leaves=15
num_cat=0
split_feature=6 4 4 6 6 3 3 6 6 2 7 4 5 7
split_gain=0.0576737 0.00118598 0.00100321 0.000637375 0.000559825 0.000496472 0.000437543 0.000379402 0.000365698 0.000354523 0.000336933 0.000308199 0.000247489 0.000138891
threshold=-52.644941549201661 -0.16809266458747754 -0.23242856643735385 6906.9617793706047 -14631.684512585054 72.295240080718216 60.593851158816584 694.50123971480627 2347.8478075122703 13.28138219734168 3.0525394699170709 0.24120149426915025 0.95393594114616753 2.5088563568700608
decision_type=2 2 2 2 2 2 2 2 2 2 2 2 2 2
left_child=1 9 6 7 -3 -6 8 -4 -2 10 -1 -5 -11 -8
right_child=2 4 3 11 5 -7 13 -9 -10 12 -12 -13 -14 -15
leaf_value=-0.00038204910874444707 1.0150874499004204e-05 -0.00045946611467115875 0.00015657700783280729 0.0003527849890751611 -0.00026549000619936471 -0.00012958587138200528 0.00035607725191221109 0.00031313932586867128 0.00020125310721872986 -0.00034008816544253088 -0.00053691979377287096 0.00047393287284730728 -0.00016764134241384454 0.00020017343485960738
leaf_weight=174 32 32 44 128 420 80 50 321 115 21 44 89 30 20
leaf_count=174 32 32 44 128 420 80 50 321 115 21 44 89 30 20
internal_value=-1.66897e-07 -0.000299984 0.0003004 0.000334611 -0.000256721 -0.000243745 0.000208646 0.000294266 0.000159653 -0.000385544 -0.000413307 0.000402472 -0.000266869 0.000311533
internal_weight=1600 801 799 582 532 500 217 365 147 269 218 217 51 70
internal_count=1600 801 799 582 532 500 217 365 147 269 218 217 51 70
is_linear=0
shrinkage=0.05


Tree=29
num_leaves=16
num_cat=0
split_feature=6 4 4 7 3 6 6 7 5 0 6 3 4 3 7
split_gain=0.0520838 0.00119637 0.000983046 0.000593356 0.000539216 0.000477378 0.00043445 0.000346151 0.000324655 0.000308031 0.000298165 0.000291874 0.000218895 0.000212376 6.53935e-05
threshold=1.0000000180025095e-35 0.11871776787094722 0.26823277495837317 -2.7287153327295894 53.070721748320672 -5937.1380278486968 -6888.1491354511481 3.3139577128601991 1.0840264757138975 40.836904527730333 10021.888108064943 73.127816611036749 0.53834280251400723 25.941620437482833 0.98661605225470816
decision_type=2 2 2 2 2 2 2 2 2 2 2 2 2 2 2
left_child=1 6 3 11 -5 12 7 -1 -8 -7 13 -2 -3 -4 -12
right_child=2 5 10 4 -6 9 8 -9 -10 -11 14 -13 -14 -15 -16
leaf_value=-0.00036075501610343275 0.00013296036021668027 -0.0003133564432676583 0.00023408422770326951 0.00023357958743442167 0.0003444294492455811 -9.9841909353639693e-05 -0.00033539245313840105 -0.00054539153100146599 -0.00022956791358107393 -0.00021197201352072463 0.00044107408972368352 0.00031252632553722444 -0.00021197201352072463 0.00037951240930479718 0.00056740353611530738
leaf_weight=165 118 106 31 243 200 114 183 30 120 56 21 28 33 132 20
leaf_count=165 118 106 31 243 200 114 183 30 120 56 21 28 33 132 20
internal_value=-2.03528e-07 -0.000282992 0.000287577 0.000254815 0.000283625 -0.000205706 -0.000330946 -0.000389161 -0.000293482 -0.00014951 0.000382171 0.000167398 -0.000274434 0.000351854 0.000502698
internal_weight=1600 807 793 589 443 309 498 195 303 170 204 146 139 163 41
internal_count=1600 807 793 589 443 309 498 195 303 170 204 146 139 163 41
is_linear=0
shrinkage=0.05


Tree=30
num_leaves=14
num_cat=0
split_feature=6 4 4 6 6 3 6 7 7 3 6 2 2
split_gain=0.0470373 0.00106114 0.000864804 0.000698677 0.000545281 0.000451589 0.000495118 0.000402593 0.000449725 0.000293191 0.000275781 0.00021009 0.000136711
threshold=72.791323239575718 -0.22413078880914503 0.030936282508309727 -175.01076867967211 -14631.684512585054 72.629123596982268 3818.3478086216051 -6.1346599132348301 3.607878496508135 23.148110914864265 7785.5323102450302 9.3334480190493156 9.8779821967733294
decision_type=2 2 2 2 2 2 2 2 2 2 2 2 2
left_child=1 7 9 4 -3 6 -4 -1 -9 12 -11 -7 -2
right_child=2 3 5 -5 -6 11 -8 8 -10 10 -12 -13 -14
leaf_value=-0.00055556268400877074 3.6860570630610543e-05 -0.00042399510585758098 0.00022253967635405643 4.5485265160238006e-06 -0.00022784390970114252 0.00038578054395896431 0.00035445935708309541 -0.00030397762978431132 -0.00050766081876645335 0.000211692134192022 0.00030414801059047632 0.00057993416663851933 0.0002008701053133185
leaf_weight=23 27 38 111 20 524 38 198 177 32 246 120 22 24
leaf_count=23 27 38 111 20 524 38 198 177 32 246 120 22 24
internal_value=-1.96469e-07 -0.000266594 0.000275691 -0.000230551 -0.000241107 0.000331445 0.000307071 -0.000357013 -0.000335164 0.000226355 0.000242006 0.00045697 0.000114042
internal_weight=1600 814 786 582 562 369 309 232 209 417 366 60 51
internal_count=1600 814 786 582 562 369 309 232 209 417 366 60 51
is_linear=0
shrinkage=0.05


Tree=31
num_leaves=14
num_cat=0
split_feature=6 4 4 6 7 4 7 3 3 6 2 3 6
split_gain=0.0424387 0.000975477 0.00078646 0.000680266 0.000492061 0.000435518 0.000433035 0.000381514 0.000316417 0.000273065 0.000260887 0.000231066 0.000189896
threshold=72.791323239575718 0.25150747418817249 0.26823277495837317 -6039.9424727210335 -2.7287153327295894 -0.59074345935714245 3.8963806921528437 73.127816611036749 46.451103055143136 -769.26111253166948 13.935601611599699 73.127816611036749 8648.1854597867368
decision_type=2 2 2 2 2 2 2 2 2 2 2 2 2
left_child=1 3 4 8 11 -6 9 -5 -1 -3 12 -2 -4
right_child=2 6 10 7 5 -7 -8 -9 -10 -11 -12 -13 -14
leaf_value=-0.00041434839802383984 0.00012099666373301419 -0.00015609365604916548 0.00028614565664004959 -0.00026533220285735999 0.00011653923011181178 0.00027614810962416249 -0.00032417599660610516 -0.00012755551670423182 -0.00030049048036055829 4.3588949936426615e-06 0.00046651103821696363 0.00028103019872755149 0.00039314036792887806
leaf_weight=107 116 160 120 285 48 390 35 61 142 24 37 28 47
leaf_count=107 116 160 120 285 48 390 35 61 142 24 37 28 47
internal_value=-1.48189e-07 -0.000253189 0.000261907 -0.000286396 0.000232296 0.000258657 -0.000162969 -0.000241042 -0.000349417 -0.000132304 0.000346385 0.000152114 0.00031977
internal_weight=1600 814 786 595 582 438 219 346 249 184 204 144 167
internal_count=1600 814 786 595 582 438 219 346 249 184 204 144 167
is_linear=0
shrinkage=0.05


Tree=32
num_leaves=15
num_cat=0
split_feature=6 4 4 6 3 4 7 6 3 6 7 6 6 4
split_gain=0.0383388 0.000892433 0.000779807 0.000548149 0.000491348 0.000542716 0.000334702 0.000304108 0.000270565 0.000283235 0.000265001 0.000254812 0.000242988 0.000235937
threshold=-52.644941549201661 -0.16809266458747754 -0.31399990778461012 6644.6298884741636 32.740846373135732 0.58327101870303 5.1849265426365969 -13430.141621298008 60.593851158816584 1977.4435794098229 3.0525394699170709 -9394.7266568378145 6818.1409933093846 0.24120149426915025
decision_type=2 2 2 2 2 2 2 2 2 2 2 2 2 2
left_child=1 7 8 6 11 -6 -4 -1 9 -2 -9 -3 -10 -5
right_child=2 4 3 13 5 -7 -8 10 12 -11 -12 -13 -14 -15
leaf_value=-0.00046607837076965465 1.9993933714746415e-07 -0.00043818268155598126 0.00024539446892223179 0.00029038542355707461 -0.00019881968628105188 -1.2294102585160133e-05 5.6131107616238297e-05 -0.00027164590537917234 0.00014095671474394664 0.00014592172701297239 -0.0003828329191752826 -0.00025674819865299309 0.0003572843426372856 0.00039090942884015137
leaf_weight=31 20 23 356 154 343 44 25 187 27 98 51 122 25 94
leaf_count=31 20 23 356 154 343 44 25 187 27 98 51 122 25 94
internal_value=-1.06003e-07 -0.000244554 0.000244954 0.000270634 -0.000207026 -0.000177613 0.000232976 -0.000318774 0.000149939 0.000108065 -0.000299587 -0.000285527 0.00024496 0.000328487
internal_weight=1600 801 799 629 532 387 381 269 170 118 238 145 52 248
internal_count=1600 801 799 629 532 387 381 269 170 118 238 145 52 248
is_linear=0
shrinkage=0.05


Tree=33
num_leaves=14
num_cat=0
split_feature=6 4 6 4 7 3 4 7 7 3 7 3 3
split_gain=0.0346461 0.000793019 0.000763164 0.00062848 0.0004201 0.0004117 0.000518905 0.000261384 0.000337706 0.000259679 0.000336232 0.00023993 0.000110653
threshold=-175.01076867967211 -0.16809266458747754 1607.5502000370523 -0.22108359729960633 -1.2847616332495189 32.740846373135732 0.58327101870303 -6.1346599132348301 3.0525394699170709 68.765618449141769 -1.247733016303515 28.452776487264074 65.422998447250251
decision_type=2 2 2 2 2 2 2 2 2 2 2 2 2
left_child=1 7 9 12 -5 11 -7 -1 -9 10 -2 -3 -4
right_child=2 5 3 4 -6 6 -8 8 -10 -11 -12 -13 -14
leaf_value=-0.00045399038119487366 -3.379325967217033e-06 -0.00024141344689941236 0.00018838535316467977 0.00022299264669389292 0.00031975343071789504 -0.00019428316442740437 -1.167939535662299e-05 -0.00025756676968937781 -0.00039977408166494031 0.00018838535316467977 0.00015301489371783794 -0.00040676899559373317 0.00027198052706403863
leaf_weight=27 42 117 146 181 295 336 44 184 54 35 67 27 45
leaf_count=27 42 117 146 181 295 336 44 184 54 35 67 27 45
internal_value=-1.79833e-07 -0.00023607 0.000229311 0.000251848 0.00028296 -0.000200422 -0.00017314 -0.000306558 -0.000289832 0.000124923 8.21939e-05 -0.000272418 0.000188385
internal_weight=1600 789 811 667 476 524 380 265 238 144 109 144 191
internal_count=1600 789 811 667 476 524 380 265 238 144 109 144 191
is_linear=0
shrinkage=0.05


Tree=34
num_leaves=14
num_cat=0
split_feature=6 4 4 6 6 7 0 0 3 4 7 5 7
split_gain=0.0312231 0.000730445 0.000715962 0.000524434 0.000423668 0.000401941 0.000325906 0.000322748 0.000311931 0.000377154 0.00027812 0.000277676 0.000181509
threshold=-175.01076867967211 -0.02027492795038055 -0.095305883505407321 694.50123971480627 -14631.684512585054 -2.7287153327295894 22.813632490002242 51.712264954254209 61.984592632036986 -0.56469564884891332 2.0452619070985754 1.5272433050199254 -3.844859974594391
decision_type=2 2 2 2 2 2 2 2 2 2 2 2 2
left_child=2 5 8 -3 -4 6 -2 -6 12 -10 -7 -5 -1
right_child=1 3 4 11 7 10 -8 -9 9 -11 -12 -13 -14
leaf_value=-0.00040940326097453102 0.00018770820479164143 8.0304881885240326e-05 -0.00038897541890037246 0.00026733514501560711 -0.00015399046583918844 0.00023669516635316373 -3.369564282846541e-06 -0.00026848149871118557 -0.00038810670459777334 -0.00017389630294780304 0.00013823111292397505 0.00042334078184907303 -0.00029449772058518891
leaf_weight=44 38 36 24 357 366 174 53 74 26 98 122 31 157
leaf_count=44 38 36 24 357 366 174 53 74 26 98 122 31 157
internal_value=-3.32235e-07 0.000217527 -0.000224266 0.000262861 -0.000184404 0.000167859 7.59575e-05 -0.000173246 -0.000281177 -0.000218811 0.000196112 0.0002798 -0.000319651
internal_weight=1600 811 789 424 464 387 91 440 325 124 296 388 201
internal_count=1600 811 789 424 464 387 91 440 325 124 296 388 201
is_linear=0
shrinkage=0.05


Tree=35
num_leaves=14
num_cat=0
split_feature=6 4 4 6 7 3 7 3 3 2 0 6 6
split_gain=0.0282287 0.00071883 0.000605337 0.000558537 0.000390351 0.0003939 0.000373869 0.000326124 0.000264968 0.000229923 0.00021018 0.000209291 0.000153046
threshold=72.791323239575718 0.25150747418817249 0.26823277495837317 -6039.9424727210335 -2.7287153327295894 53.070721748320672 3.8963806921528437 73.127816611036749 46.451103055143136 13.935601611599699 40.836904527730333 9414.7962427706098 9358.1678068936399
decision_type=2 2 2 2 2 2 2 2 2 2 2 2 2
left_child=1 3 4 8 11 -6 10 -5 -1 12 -3 -2 -4
right_child=2 6 9 7 5 -7 -8 -9 -10 -11 -12 -13 -14
leaf_value=-0.0003517201152169385 8.3794742542003028e-05 -6.8555763298516268e-05 0.00023560952491266109 -0.0002165585268404245 0.0001676427913757996 0.00026287291232131169 -0.00027903337096047055 -8.9175436458718341e-05 -0.00024752917593040888 0.00040029602515042413 -0.00018945105569270841 0.00022878606996528107 0.00033141691127324074
leaf_weight=107 112 135 128 285 239 199 35 61 142 37 49 32 39
leaf_count=107 112 135 128 285 239 199 35 61 142 37 49 32 39
internal_value=-3.16942e-07 -0.000206691 0.000213409 -0.000235197 0.00018743 0.000210909 -0.000129243 -0.000194101 -0.000292302 0.000287523 -0.000100751 0.000116015 0.000262538
internal_weight=1600 814 786 595 582 438 219 346 249 204 184 144 167
internal_count=1600 814 786 595 582 438 219 346 249 204 184 144 167
is_linear=0
shrinkage=0.05


Tree=36
num_leaves=15
num_cat=0
split_feature=6 6 4 4 3 4 7 4 6 1 3 7 0 3
split_gain=0.0254996 0.000629332 0.000627245 0.000521011 0.000356215 0.000444507 0.000312556 0.000289159 0.00024852 0.0002379 0.000215617 0.000211008 0.000186322 0.000174804
threshold=-175.01076867967211 6442.1167912034107 -0.16809266458747754 -0.22413078880914503 32.740846373135732 0.58327101870303 5.1849265426365969 0.24120149426915025 -13430.141621298008 1.5208056935634515 28.452776487264074 3.0525394699170709 18.393951316062164 67.30633879949535
decision_type=2 2 2 2 2 2 2 2 2 2 2 2 2 2
left_child=2 3 8 9 10 -6 -5 12 -1 -2 -4 -10 -3 -9
right_child=1 7 4 6 5 -7 -8 13 11 -11 -12 -13 -14 -15
leaf_value=-0.00039836917919362151 -3.0221879186015421e-06 0.00029883652321969801 -0.00020852214434954579 0.00020309424741722927 -0.0001651556994734246 -3.0221879186015421e-06 1.2325796421424931e-05 0.00028140931076036811 -0.00022235259259373457 0.00011161100569931175 -0.0003652758176300537 -0.00032304144557226229 0.00020358748896466084 0.00043357976456172764
leaf_weight=31 27 57 117 323 336 44 23 77 183 96 27 51 183 25
leaf_count=31 27 57 117 323 336 44 23 77 183 96 27 51 183 25
internal_value=-2.77328e-07 0.000196604 -0.000202648 0.000158992 -0.000170945 -0.000145567 0.000190413 0.000248183 -0.000265338 7.06042e-05 -0.000237913 -0.000247714 0.000218211 0.000318706
internal_weight=1600 811 789 469 524 380 346 342 265 123 144 234 240 102
internal_count=1600 811 789 469 524 380 346 342 265 123 144 234 240 102
is_linear=0
shrinkage=0.05


Tree=37
num_leaves=15
num_cat=0
split_feature=6 6 4 4 6 3 3 6 3 6 2 4 5 2
split_gain=0.0230467 0.000657378 0.000580373 0.000568986 0.000348772 0.000343671 0.000284701 0.000281488 0.000226348 0.000196039 0.000179311 0.000162119 0.000139853 0.000115739
threshold=251.5006860746378 -13430.141621298008 0.071900341475748877 0.030936282508309727 -1005.9455663755544 72.629123596982268 74.243041791489205 3818.3478086216051 23.148110914864265 7785.5323102450302 9.3334480190493156 -0.38680952465503221 1.0369034912521242 9.8779821967733294
decision_type=2 2 2 2 2 2 2 2 2 2 2 2 2 2
left_child=1 11 4 8 -3 7 -4 -5 13 -10 -7 -1 -13 -2
right_child=3 2 6 5 -6 10 -8 -9 9 -11 -12 12 -14 -15
leaf_value=-0.00044680036895442757 4.5833759775128459e-06 -0.00022801722465715102 -0.00014085387910851125 0.00015233037338129225 -9.0636189654689147e-05 0.00028371827387385759 -1.0280063101423107e-05 0.00025360354060228362 0.00014263727567372463 0.00022064071790737217 0.00046308688906719912 -0.00036323243562477611 -0.00024758663782804266 0.00013738606126783754
leaf_weight=20 27 360 282 105 53 38 49 198 245 120 22 31 26 24
leaf_count=20 27 360 282 105 53 38 49 198 245 120 22 31 26 24
internal_value=-3.9965e-07 -0.000185246 -0.000170853 0.000194413 -0.000210387 0.000240158 -0.000121524 0.000218509 0.000154496 0.000168282 0.000349487 -0.000324321 -0.000281345 5.58287e-05
internal_weight=1600 821 744 779 413 363 331 303 416 365 60 77 57 51
internal_count=1600 821 744 779 413 363 331 303 416 365 60 77 57 51
is_linear=0
shrinkage=0.05


Tree=38
num_leaves=15
num_cat=0
split_feature=6 4 4 6 7 7 7 7 3 7 3 7 3 0
split_gain=0.0207855 0.000585359 0.000491383 0.000488013 0.000320332 0.000435306 0.000316461 0.000341407 0.000294675 0.000293419 0.000273894 0.000198875 0.000110156 9.68216e-05
threshold=72.791323239575718 -0.22413078880914503 -0.22108359729960633 -2866.6430261874693 5.0855746117266571 -1.2847616332495189 -6.1346599132348301 3.6996682581507705 65.422998447250251 -6.2535084579677571 68.429694096919306 -2.2575965889259582 73.642367170383622 30.608966877607983
decision_type=2 2 2 2 2 2 2 2 2 2 2 2 2 2
left_child=1 6 8 9 5 -4 -1 -8 11 -3 -5 -2 -10 -6
right_child=2 3 4 10 13 -7 7 -9 12 -11 -12 -13 -14 -15
leaf_value=-0.00042062341121693508 6.9552992980154049e-06 -0.00035349464590423021 0.00016446647143346049 -0.00011455713064206617 0.00014871124024336626 0.00025800407063155702 -0.00019905598626934466 -0.00038131627351200832 0.00030388118681477631 -0.00016971698194153691 2.8085396782606515e-06 0.00012418229386815241 0.00016042595804606209 8.5426236513409431e-06
leaf_weight=23 53 23 211 132 28 303 179 30 23 390 37 114 32 22
leaf_count=23 53 23 211 132 28 303 179 30 23 390 37 114 32 22
internal_value=-3.45697e-07 -0.000177434 0.000183051 -0.000150663 0.000207854 0.000219606 -0.00024459 -0.000225218 0.000120037 -0.000179952 -7.90893e-05 8.69785e-05 0.000220416 8.7037e-05
internal_weight=1600 814 786 582 564 514 232 209 222 413 169 167 55 50
internal_count=1600 814 786 582 564 514 232 209 222 413 169 167 55 50
is_linear=0
shrinkage=0.05


Tree=39
num_leaves=15
num_cat=0
split_feature=6 3 6 6 4 2 4 0 7 4 7 4 5 4
split_gain=0.0187713 0.000529402 0.000629717 0.000518455 0.000473033 0.000439008 0.00037126 0.000274677 0.000235842 0.000222112 0.000184235 0.000143748 0.0001232 8.4195e-05
threshold=-175.01076867967211 68.119003389933894 1220.6974425480419 -13430.141621298008 0.071900341475748877 10.973194715404244 0.36984539383028753 40.137849039212291 3.1971927348185543 0.1026809617690964 -1.247733016303515 -0.38680952465503221 1.0369034912521242 0.0062809989158170839
decision_type=2 2 2 2 2 2 2 2 2 2 2 2 2 2
left_child=3 2 10 11 8 9 -4 -6 -5 -3 -2 -1 -13 -7
right_child=1 5 6 4 7 13 -8 -9 -10 -11 -12 12 -14 -15
leaf_value=-0.00041248840832849967 -2.6318541722876739e-06 0.00014748814007308443 0.00014625837896188007 -0.00017309932857052535 -8.4163278951646965e-05 0.0003087821607629809 0.00025112973570468885 -0.00018552589330056435 -0.00022886824303439287 0.00027505954423216744 9.4246587627408611e-05 -0.00033544548237959165 -0.00022886824303439287 0.00044407170587320525
leaf_weight=20 33 85 430 319 220 23 105 96 77 57 55 31 26 23
leaf_count=20 33 85 430 319 220 23 105 96 77 57 55 31 26 23
internal_value=-2.76802e-07 0.000168645 0.000146453 -0.000173908 -0.00016058 0.000242184 0.000166841 -0.000114957 -0.000196985 0.000198696 2.25066e-05 -0.000297157 -0.00025669 0.000376427
internal_weight=1600 811 623 789 712 188 535 316 396 142 88 77 57 46
internal_count=1600 811 623 789 712 188 535 316 396 142 88 77 57 46
is_linear=0
shrinkage=0.05


Tree=40
num_leaves=15
num_cat=0
split_feature=6 6 4 4 7 7 4 3 1 3 2 6 1 5
split_gain=0.0169768 0.000527633 0.00045374 0.000422977 0.000307276 0.000357912 0.000267831 0.000277739 0.000236032 0.000225198 0.000167585 0.000162118 0.000132642 0.000123038
threshold=251.5006860746378 -6039.9424727210335 0.26823277495837317 0.12926777657857569 -2.7287153327295894 3.5538339631457876 -0.41560546092983908 34.099116677707975 4.4349125673778236 32.921030405841726 13.935601611599699 9414.7962427706098 1.3062325015628058 0.96078853827831578
decision_type=2 2 2 2 2 2 2 2 2 2 2 2 2 2
left_child=1 6 4 8 11 -6 13 -8 -3 -5 12 -2 -4 -1
right_child=2 3 10 9 5 -7 7 -9 -10 -11 -12 -13 -14 -15
leaf_value=-0.00021556339495527071 5.206222952495467e-05 -0.00016559491528942577 0.00026866042393839095 -0.00014725897652272769 0.00018975144765439231 8.1579345621293859e-05 -0.0002703226771126011 -0.00016559491528942577 -1.0773005237751932e-05 -2.3023564903984447e-05 0.00032756279584105332 0.00017979943854697924 0.00018930107439605405 -0.00037131847111595564
leaf_weight=21 111 281 21 53 336 99 76 216 25 117 37 32 143 32
leaf_count=21 111 281 21 53 336 99 76 216 25 117 37 32 143 32
internal_value=-4.68048e-07 -0.000159116 0.000166734 -0.000124991 0.000144231 0.000165133 -0.000206199 -0.00018743 -0.000160122 -6.17558e-05 0.000231444 8.06468e-05 0.000209758 -0.000309604
internal_weight=1600 821 779 476 578 435 345 292 306 170 201 143 164 53
internal_count=1600 821 779 476 578 435 345 292 306 170 201 143 164 53
is_linear=0
shrinkage=0.05


Tree=41
num_leaves=16
num_cat=0
split_feature=6 7 7 3 6 4 2 4 4 6 7 4 4 2 4
split_gain=0.0153462 0.000497188 0.000569829 0.000476545 0.000550897 0.000417963 0.000383137 0.000336702 0.000196292 0.000172508 0.000152313 0.000119454 0.00010413 9.74318e-05 7.1062e-05
threshold=-175.01076867967211 3.2586877934776299 -6.2535084579677571 68.119003389933894 1220.6974425480419 0.16997552868798285 10.973194715404244 -0.22108359729960633 0.1026809617690964 -4440.0774267297529 -1.247733016303515 -0.20591790615348468 -0.22108359729960633 5.5077661608964652 0.0062809989158170839
decision_type=2 2 2 2 2 2 2 2 2 2 2 2 2 2 2
left_child=1 2 12 4 10 -4 8 -6 -5 13 -2 -11 -1 -3 -8
right_child=3 9 5 6 7 -7 14 -9 -10 11 -12 -13 -14 -15 -16
leaf_value=-0.00038305019749844052 -2.5404065944651463e-06 -0.00036554426634601055 -0.00015399654265670909 0.00013332969789831516 8.8512243751473279e-05 -6.4532348977268278e-05 0.00028536036324626561 0.00017578681052334938 0.00025325717129466314 -0.00023628752981109141 8.2838976006410059e-05 -0.00013430130931434784 -0.00023884887153643276 -0.00024946094140343086 0.00040965142869264011
leaf_weight=21 33 28 395 85 156 195 23 379 57 20 55 48 31 51 23
leaf_count=21 33 28 395 85 156 195 23 379 57 20 55 48 31 51 23
internal_value=-4.11018e-07 -0.000157405 -0.000138412 0.000152324 0.00013127 -0.000124428 0.000222096 0.000150339 0.00018147 -0.000240352 1.53394e-05 -0.000181971 -0.000297084 -0.000290604 0.000347506
internal_weight=1600 789 642 811 623 590 188 535 142 147 88 68 52 79 46
internal_count=1600 789 642 811 623 590 188 535 142 147 88 68 52 79 46
is_linear=0
shrinkage=0.05


Tree=42
num_leaves=15
num_cat=0
split_feature=6 6 3 4 4 6 1 7 3 6 1 4 5 2
split_gain=0.0138616 0.000467985 0.000444756 0.000442899 0.000398397 0.00030732 0.000231684 0.000216049 0.00018092 0.000200692 0.000159017 0.00012101 0.000116308 0.000100276
threshold=251.5006860746378 -13430.141621298008 73.127816611036749 0.25150747418817249 -0.34407906550083861 6644.6298884741636 1.6343809933291891 5.2452761403065642 60.593851158816584 6818.1409933093846 4.6139842324615685 -0.38680952465503221 1.0369034912521242 13.022172923817973
decision_type=2 2 2 2 2 2 2 2 2 2 2 2 2 2
left_child=1 11 3 -3 8 7 -4 -6 13 -10 -7 -1 -13 -2
right_child=4 2 6 -5 5 10 -8 -9 9 -11 -12 12 -14 -15
leaf_value=-0.00036704105108583464 1.4905741996407425e-05 -0.00017522711294128512 3.3389255591530567e-06 -8.1588175385666716e-05 0.00014921631934460797 0.0001980209196794677 -9.4420650762668031e-05 3.3389255591530567e-06 6.2683859757201464e-05 0.00026544403922541636 0.0003358273086791008 -0.00030031585291350984 -0.00019648020285110979 0.00013126860430929811
leaf_weight=20 81 447 32 176 345 233 89 24 26 23 23 31 26 24
leaf_count=20 81 447 32 176 345 233 89 24 26 23 23 31 26 24
internal_value=-5.25599e-07 -0.000143881 -0.000131737 -0.000148774 0.000150559 0.000168308 -4.40173e-05 0.000139105 7.85247e-05 0.000157857 0.000210402 -0.000261224 -0.000224095 4.1503e-05
internal_weight=1600 821 744 623 779 625 121 369 154 49 256 77 57 105
internal_count=1600 821 744 623 779 625 121 369 154 49 256 77 57 105
is_linear=0
shrinkage=0.05


Tree=43
num_leaves=16
num_cat=0
split_feature=6 7 7 7 3 3 7 4 7 5 6 0 5 4 2
split_gain=0.012507 0.00045111 0.000510014 0.000420741 0.00045493 0.000348845 0.000330636 0.000301244 0.000195279 0.000154774 0.00015074 0.000113949 0.00010125 9.10573e-05 8.58173e-05
threshold=-175.01076867967211 3.2586877934776299 -6.2535084579677571 -2.7287153327295894 27.884295032539864 32.921030405841726 3.6996682581507705 -0.097021031933601773 -6.751456983075756 1.2844753960211883 -4440.0774267297529 40.627280061010836 1.2496691783695091 -0.22108359729960633 5.5077661608964652
decision_type=2 2 2 2 2 2 2 2 2 2 2 2 2 2 2
left_child=1 2 13 7 9 -4 -6 12 -9 -5 14 -12 -2 -1 -3
right_child=3 10 5 4 6 -7 -8 8 -10 -11 11 -13 -14 -15 -16
leaf_value=-0.00035450229327017 -2.2846225628398755e-06 -0.00033840784036718625 -0.00017603439352785103 3.9266879919167599e-05 0.00019870310846129447 -8.8121303911917569e-05 9.6253594167870803e-05 0.00026116739858740139 9.3593143575693974e-05 0.00018428084883413725 -0.00011938837942579995 -0.00021730190680987441 0.00010761906857320962 -0.00021965615535830902 -0.00022946294373147846
leaf_weight=21 54 28 152 92 401 438 98 21 101 23 48 20 21 31 51
leaf_count=21 54 28 152 92 401 438 98 21 101 23 48 20 21 31 51
internal_value=-3.62279e-07 -0.000142091 -0.000124 0.000137522 0.000157922 -0.00011077 0.000178583 7.39426e-05 0.000122438 6.82697e-05 -0.000221101 -0.000166527 -2.28462e-06 -0.000274113 -0.000268076
internal_weight=1600 789 642 811 614 590 499 197 122 115 147 68 75 52 79
internal_count=1600 789 642 811 614 590 499 197 122 115 147 68 75 52 79
is_linear=0
shrinkage=0.05


Tree=44
num_leaves=14
num_cat=0
split_feature=6 6 7 4 4 0 7 7 7 6 2 1 3
split_gain=0.0113177 0.000442532 0.000430084 0.000372518 0.000300053 0.00029141 0.000270799 0.000329389 0.000188524 0.000138229 0.000137234 0.000128645 3.54684e-05
threshold=317.79878505111282 -2614.1980789441809 -6.2535084579677571 0.26823277495837317 -0.41560546092983908 36.268229354858946 -2.7287153327295894 2.0452619070985754 2.3601862414746955 9414.7962427706098 14.375645840883747 1.3273842126143136 48.689537962396273
decision_type=2 2 2 2 2 2 2 2 2 2 2 2 2
left_child=1 2 12 6 -4 8 9 -8 -3 -2 11 -5 -1
right_child=3 5 4 10 -6 -7 7 -9 -10 -11 -12 -13 -14
leaf_value=-0.00025957495464743781 3.0245850367381619e-05 4.1956789562983036e-06 -0.00022385095362960274 0.00023337610468202041 -0.00012376239298966262 -0.00011011047102800519 0.00017397868522669841 8.540652802785339e-05 -6.6695260448356944e-05 0.00014831676799076376 0.00028916787348200819 0.00015719864097953743 -0.00035147082824204563
leaf_weight=21 110 116 89 22 472 78 248 182 31 32 33 145 21
leaf_count=21 110 116 89 22 472 78 248 182 31 32 33 145 21
internal_value=-4.61495e-07 -0.000128866 -0.000151195 0.000137258 -0.000139641 -6.9026e-05 0.00011672 0.00013649 -2.328e-05 5.68534e-05 0.000195996 0.000177584 -0.000305523
internal_weight=1600 828 603 772 561 225 572 430 147 142 200 167 42
internal_count=1600 828 603 772 561 225 572 430 147 142 200 167 42
is_linear=0
shrinkage=0.05


Tree=45
num_leaves=15
num_cat=0
split_feature=6 6 3 4 4 3 7 7 7 6 5 4 5 1
split_gain=0.0102494 0.000403169 0.000418642 0.00037469 0.000355144 0.000265782 0.000254211 0.00019312 0.000154925 0.000243133 0.000130734 0.000104925 0.000106641 3.59591e-06
threshold=317.79878505111282 -13430.141621298008 73.127816611036749 0.25150747418817249 -0.34407906550083861 25.941620437482833 6.7854890092816627 2.9984681250917582 2.0452619070985754 4914.940723276829 1.2844753960211883 -0.38680952465503221 1.0369034912521242 2.1972917527993099
decision_type=2 2 2 2 2 2 2 2 2 2 2 2 2 2
left_child=1 11 3 -3 8 10 -7 -4 9 -2 -6 -1 -13 -10
right_child=4 2 7 -5 5 6 -8 -9 13 -11 -12 12 -14 -15
leaf_value=-0.00033024258897057735 1.3007683520875302e-05 -0.00015229128704067948 3.8517908039457591e-07 -6.6447086565103294e-05 4.2286027410927303e-05 0.0001694293900525714 3.879992311826787e-06 -0.00016940108956077895 3.879992311826787e-06 0.00016312516449640195 0.00017573386231788392 -0.00027061188931486781 -0.00017164169704184806 3.8300841435557233e-05
leaf_weight=20 49 451 103 177 78 494 22 20 20 60 24 31 26 25
leaf_count=20 49 451 103 177 78 494 22 20 20 60 24 31 26 25
internal_value=-5.51947e-07 -0.000122747 -0.000111575 -0.000128096 0.000130507 0.000147436 0.000162014 -2.72223e-05 6.25713e-05 9.56412e-05 7.36855e-05 -0.000231708 -0.000197135 3.87999e-06
internal_weight=1600 828 751 628 772 618 516 123 154 109 102 77 57 45
internal_count=1600 828 751 628 772 618 516 123 154 109 102 77 57 45
is_linear=0
shrinkage=0.05


Tree=46
num_leaves=16
num_cat=0
split_feature=6 7 7 3 6 2 4 4 7 7 4 0 6 4 4
split_gain=0.00925335 0.000400565 0.000414976 0.000396891 0.000428951 0.00032503 0.000311061 0.000274627 0.000174382 0.000169028 0.000141889 0.00013973 0.000134122 7.69906e-05 5.83807e-05
threshold=-175.01076867967211 3.2586877934776299 -6.2535084579677571 68.119003389933894 1977.4435794098229 10.973194715404244 0.16997552868798285 -0.22108359729960633 0.9070828800681191 3.5538339631457876 0.069075134432272242 41.754088945432372 -6688.5871000638317 -0.22108359729960633 0.0062809989158170839
decision_type=2 2 2 2 2 2 2 2 2 2 2 2 2 2 2
left_child=1 2 13 4 8 9 -4 -6 -2 -5 12 -12 -3 -1 -7
right_child=3 10 6 5 7 14 -8 -9 -10 -11 11 -13 -14 -15 -16
leaf_value=-0.00031472240447155426 -2.190132550919789e-06 -0.00032512697012862193 -0.00011897139733080139 0.00016704522349905609 6.8855598970212869e-05 0.00024091926372974464 -4.1791742702256527e-05 0.00014452824548033083 6.8855598970212869e-05 1.3374577074067755e-05 -9.4505668865800234e-05 -0.00025281001737312178 -0.00019189235987213062 -0.00019072862211736897 0.00035357566951500741
leaf_weight=21 76 30 395 121 148 23 195 346 53 21 46 20 51 31 23
leaf_count=21 76 30 395 121 148 23 195 346 53 21 46 20 51 31 23
internal_value=-5.36636e-07 -0.000122444 -0.000105397 0.000118064 9.88496e-05 0.000181738 -9.34629e-05 0.000120051 1.76604e-05 0.000144319 -0.000196896 -0.000142477 -0.000241239 -0.000240803 0.000297247
internal_weight=1600 789 642 811 623 188 590 494 129 142 147 66 81 52 46
internal_count=1600 789 642 811 623 188 590 494 129 142 147 66 81 52 46
is_linear=0
shrinkage=0.05


Tree=47
num_leaves=15
num_cat=0
split_feature=6 7 7 4 7 5 3 4 4 0 4 3 0 2
split_gain=0.00834707 0.000384367 0.00042582 0.000330616 0.000302845 0.000319342 0.000247474 0.000240976 0.000197239 0.000131695 0.000209428 0.000131017 0.000209548 0.000168988
threshold=1.0000000180025095e-35 3.2586877934776299 -1.5331827955189672 -0.31399990778461012 -2.8062247982350264 1.5386214626987813 32.921030405841726 0.29343145335614068 -0.11107332717800168 51.712264954254209 0.071900341475748877 60.593851158816584 34.994045140769906 13.022172923817973
decision_type=2 2 2 2 2 2 2 2 2 2 2 2 2 2
left_child=1 2 7 11 8 -6 -4 -1 -5 10 -3 13 -13 -2
right_child=3 9 6 4 5 -7 -8 -9 -10 -11 -12 12 -14 -15
leaf_value=-0.00016573582955049473 4.2397710662147411e-07 -0.00022306781523054398 -0.00013187822342226882 4.2397710662147411e-07 0.00013987051899562176 0.00030580863016688631 -3.7438878825257599e-05 -5.4003953888151631e-05 9.9950102756550017e-05 -0.000293576006758182 -9.268764827456008e-05 0.00019841287186750378 4.2397710662147411e-07 0.00013989971659611911
leaf_weight=231 93 70 93 28 448 31 273 61 116 24 55 32 20 25
leaf_count=231 93 70 93 28 448 31 273 61 116 24 55 32 20 25
internal_value=-5.75336e-07 -0.000113783 -9.73628e-05 0.000114631 0.000131496 0.00015061 -6.14358e-05 -0.000142395 6.79155e-05 -0.000186298 -0.000165701 5.28275e-05 0.00011895 2.36888e-05
internal_weight=1600 807 658 793 623 479 366 292 144 149 125 170 52 118
internal_count=1600 807 658 793 623 479 366 292 144 149 125 170 52 118
is_linear=0
shrinkage=0.05


Tree=48
num_leaves=15
num_cat=0
split_feature=6 6 4 3 6 0 4 5 3 4 0 5 5 7
split_gain=0.00753692 0.000361898 0.000315984 0.00027609 0.000326253 0.000245524 0.000215191 0.000200479 0.000182641 0.000179702 0.000120779 7.40281e-05 4.55453e-05 1.8395e-05
threshold=317.79878505111282 -6039.9424727210335 0.36984539383028753 24.244423166379374 4716.6329430777541 36.268229354858946 0.12202448048013952 1.2889817971973658 66.302756745224627 0.29343145335614068 33.406936292948942 1.2844753960211883 0.96676037308590279 3.0994761015141878
decision_type=2 2 2 2 2 2 2 2 2 2 2 2 2 2
left_child=1 8 3 11 -5 6 -3 10 9 -1 -4 -2 -7 -10
right_child=2 5 7 4 -6 12 -8 -9 13 -11 -12 -13 -14 -15
leaf_value=-0.00019245361935948799 3.1683042712621759e-06 -8.0264445260696995e-05 0.00019096909071939156 6.3216761710883644e-05 0.00014267528431792883 -0.00011100499463711504 3.1683042712621759e-06 0.00030386454757088083 -0.00011100499463711504 -0.00011100499463711504 8.8203746851464308e-05 0.00010340585096855649 -8.0264445260696995e-05 -0.00019418910655076617
leaf_weight=195 72 198 73 219 315 93 108 26 75 55 47 20 84 20
leaf_count=195 72 198 73 219 315 93 108 26 75 55 47 20 84 20
internal_value=-6.322e-07 -0.000105418 0.000111754 9.63058e-05 0.000110088 -7.74803e-05 -4.95239e-05 0.000177992 -0.00014453 -0.00016912 0.000150719 1.63068e-05 -0.000111005 -0.000111005
internal_weight=1600 828 772 626 534 483 306 146 345 250 120 92 177 95
internal_count=1600 828 772 626 534 483 306 146 345 250 120 92 177 95
is_linear=0
shrinkage=0.05


Tree=49
num_leaves=15
num_cat=0
split_feature=6 3 6 7 7 3 2 5 0 4 1 0 4 7
split_gain=0.00680934 0.000342295 0.000357065 0.00032084 0.00035551 0.000288156 0.000284115 0.000176938 0.000172278 0.000158091 0.000125745 0.000197202 6.66018e-05 5.59351e-05
threshold=-175.01076867967211 68.119003389933894 3636.1056676598696 3.2586877934776299 -6.2535084579677571 32.921030405841726 10.973194715404244 1.1696376858537409 15.76770385084483 0.1026809617690964 3.6615678482320946 44.143973389828197 -0.22108359729960633 -0.20759842999401334
decision_type=2 2 2 2 2 2 2 2 2 2 2 2 2 2
left_child=3 2 7 4 12 -6 9 -2 -4 -3 11 -5 -1 -8
right_child=1 6 8 10 5 -7 13 -9 -10 -11 -12 -13 -14 -15
leaf_value=-0.00028398945107169097 5.9665212469911299e-06 8.2096627907851468e-05 0.00018797475067913185 -0.00011642203078620097 -0.0001381786616356725 -5.8277931506605979e-05 0.00020812012517126279 7.4115738325716393e-05 9.8133997021661076e-05 0.00018972356112116314 -0.00028507230814457652 -0.00026012702523985353 -0.00016866427402184797 0.00031881088593218015
leaf_weight=21 173 85 64 94 152 438 21 65 321 57 21 32 31 25
leaf_count=21 173 85 64 94 152 438 21 65 321 57 21 32 31 25
internal_value=-5.88809e-07 0.000101151 8.33069e-05 -0.000105165 -8.99085e-05 -7.88625e-05 0.000160283 3.51629e-05 0.000113069 0.000125299 -0.000171798 -0.000152919 -0.000215238 0.000268278
internal_weight=1600 811 623 789 642 590 188 238 385 142 147 126 52 46
internal_count=1600 811 623 789 642 590 188 238 385 142 147 126 52 46
is_linear=0
shrinkage=0.05


Tree=50
num_leaves=14
num_cat=0
split_feature=6 6 3 4 4 3 6 5 7 7 4 4 5
split_gain=0.00616199 0.000321321 0.000339879 0.000279361 0.000270513 0.000244979 0.000271708 0.000177698 0.000134492 0.000111393 9.24275e-05 9.95582e-05 6.34347e-05
threshold=317.79878505111282 -13430.141621298008 73.127816611036749 0.36984539383028753 0.25150747418817249 24.244423166379374 4716.6329430777541 1.2889817971973658 2.9984681250917582 -1.2847616332495189 -0.38680952465503221 0.017548362154259534 1.2844753960211883
decision_type=2 2 2 2 2 2 2 2 2 2 2 2 2
left_child=1 10 4 5 -3 12 -7 9 -4 -5 -1 -12 -2
right_child=3 2 8 7 -6 6 -8 -9 -10 -11 11 -13 -14
leaf_value=-0.00028498183703050016 2.9557607763744268e-06 -0.00012069814757158992 2.9557607763744268e-06 7.2094152953165275e-05 -4.7757553689775883e-05 5.682178102895988e-05 0.0001293345262609595 0.00028192531469987725 -0.00013018911049584859 0.0001730933041798357 -0.0001388778411383007 -0.00023969909234438093 9.37647598766489e-05
leaf_weight=20 72 451 103 42 177 219 315 26 20 78 30 27 20
leaf_count=20 72 451 103 42 177 219 315 26 20 78 30 27 20
internal_value=-4.80648e-07 -9.52274e-05 -8.52538e-05 0.000101139 -0.00010014 8.66133e-05 9.95962e-05 0.00016342 -9.24923e-06 0.000137744 -0.000192502 -0.000160053 1.12563e-05
internal_weight=1600 828 751 772 628 626 534 146 123 120 77 57 92
internal_count=1600 828 751 772 628 626 534 146 123 120 77 57 92
is_linear=0
shrinkage=0.05


Tree=51
num_leaves=14
num_cat=0
split_feature=6 7 3 7 7 7 2 2 0 4 1 0 4
split_gain=0.00556318 0.000309522 0.000382995 0.000295122 0.000282024 0.000319009 0.000275189 0.000237367 0.000197862 0.000124764 0.000113543 0.000176084 5.85566e-05
threshold=-175.01076867967211 -2.0825903402227977 27.884295032539864 3.6996682581507705 3.2586877934776299 -6.2535084579677571 13.28138219734168 13.550372528500786 18.393951316062164 0.42152026293275452 3.6615678482320946 44.143973389828197 -0.22108359729960633
decision_type=2 2 2 2 2 2 2 2 2 2 2 2 2
left_child=4 7 9 -4 5 12 -7 8 -2 -3 11 -6 -1
right_child=1 2 3 -5 10 6 -8 -9 -10 -11 -12 -13 -14
leaf_value=-0.00026381272223911117 0.00010627423518975586 6.495615425278787e-07 0.00015232495208114086 5.4543871679665504e-05 -0.00010497512867391862 -8.705549328481382e-05 -1.687935834385261e-06 0.00018709327783793784 -1.6127497114006098e-06 0.0001391435980622191 -0.00026504025563120931 -0.00024076786209548118 -0.00015567700611427427
leaf_weight=21 58 87 363 98 94 474 116 26 159 20 21 32 31
leaf_count=21 58 87 363 98 94 474 116 26 159 20 21 32 31
internal_value=-4.05855e-07 9.15543e-05 0.000111758 0.000131539 -9.49302e-05 -8.06259e-05 -7.01623e-05 4.43288e-05 2.72234e-05 2.65363e-05 -0.000157402 -0.000139462 -0.000199347
internal_weight=1600 811 568 461 789 642 590 243 217 107 147 126 52
internal_count=1600 811 568 461 789 642 590 243 217 107 147 126 52
is_linear=0
shrinkage=0.05


Tree=52
num_leaves=14
num_cat=0
split_feature=6 6 7 4 6 0 5 3 2 6 7 5 1
split_gain=0.00502556 0.000284941 0.000309755 0.000259663 0.000225456 0.00021761 0.000215934 0.000219509 0.000147938 0.00016317 9.95686e-05 8.33856e-05 4.65062e-05
threshold=317.79878505111282 -2614.1980789441809 -5.2384426726117699 -0.050626844406857656 -13430.141621298008 36.268229354858946 1.5272433050199254 27.011021283937009 15.115360214537185 6442.1167912034107 2.3601862414746955 1.0767867686075723 2.2601146314164748
decision_type=2 2 2 2 2 2 2 2 2 2 2 2 2
left_child=1 2 11 8 -4 10 7 -5 9 -2 -3 -1 -10
right_child=3 5 4 6 -6 -7 -8 -9 12 -11 -12 -13 -14
leaf_value=-0.00016999209597997833 1.6068838351722142e-05 2.7198383532758268e-06 -0.00017570271786228529 3.2277150452288184e-05 -7.9558888576859675e-05 -7.0898198741281649e-05 0.00024499109633559842 0.0001265715719320806 9.8574147645726152e-05 8.8928616523379833e-05 -3.4277265313701622e-05 -0.00029503129451768478 0.0002011312185675793
leaf_weight=40 175 116 70 77 473 78 31 311 20 137 31 20 21
leaf_count=40 175 116 70 77 473 78 31 311 20 137 31 20 21
internal_value=-3.83552e-07 -8.59485e-05 -0.000103865 9.13881e-05 -9.19531e-05 -3.7931e-05 0.000118004 0.000107859 5.97955e-05 4.80618e-05 2.34367e-06 -0.000211672 0.000149087
internal_weight=1600 828 603 772 543 225 419 388 353 312 147 60 41
internal_count=1600 828 603 772 543 225 419 388 353 312 147 60 41
is_linear=0
shrinkage=0.05


Tree=53
num_leaves=15
num_cat=0
split_feature=6 3 6 7 2 2 4 4 7 5 0 7 4 7
split_gain=0.00454486 0.000284133 0.000278483 0.000258176 0.000338896 0.000242341 0.000235336 0.000201237 0.000145141 0.000133433 0.000106999 0.000105013 6.72854e-05 5.07376e-05
threshold=-175.01076867967211 68.119003389933894 1977.4435794098229 5.0855746117266571 13.28138219734168 10.973194715404244 -0.16809266458747754 -0.22108359729960633 3.5538339631457876 0.96078853827831578 24.861698217718626 0.86723491040778589 -0.030138068981429008 -0.20759842999401334
decision_type=2 2 2 2 2 2 2 2 2 2 2 2 2 2
left_child=3 2 11 4 6 8 -1 -4 -3 -6 -5 -2 -12 -7
right_child=1 5 7 10 9 13 -8 -9 -10 -11 12 -13 -14 -15
leaf_value=-0.00013788643268387149 -1.5963145990223244e-06 0.00012546891698886524 4.2256195119562058e-05 -8.9170882426475628e-05 -4.8687645598734794e-05 0.00017900111512669055 -7.0784944845474123e-05 0.00010457343875669602 -1.5963145990223244e-06 -1.5963145990223244e-06 -0.00029029334211372771 4.2256195119562058e-05 -0.00016929418311014565 0.00028442382966750306
leaf_weight=196 75 121 148 23 61 21 392 346 21 70 20 54 27 25
leaf_count=196 75 121 148 23 61 21 392 346 21 70 20 54 27 25
internal_value=-4.37499e-07 8.26812e-05 6.64236e-05 -8.58738e-05 -7.69495e-05 0.000136556 -9.31521e-05 8.35063e-05 0.000104246 -4.22318e-06 -0.000177539 1.00608e-06 -0.000220783 0.000236296
internal_weight=1600 811 623 789 719 188 588 494 142 131 70 129 47 46
internal_count=1600 811 623 789 719 188 588 494 142 131 70 129 47 46
is_linear=0
shrinkage=0.05


Tree=54
num_leaves=16
num_cat=0
split_feature=6 3 7 7 4 6 7 0 1 6 4 3 6 6 2
split_gain=0.0040928 0.000279119 0.000291537 0.000343862 0.000230619 0.000204209 0.00018346 0.000156872 0.000144729 0.000142262 0.000117489 0.000110224 0.000148081 0.000109721 4.99481e-05
threshold=317.79878505111282 35.519163934350097 -4.955443964701554 3.1971927348185543 -0.34407906550083861 10764.877209901379 -1.2847616332495189 21.426088506433391 3.3786604868500616 -2812.9820839210001 -0.088564444817023927 60.593851158816584 6818.1409933093846 -10853.9035454696 13.022172923817973
decision_type=2 2 2 2 2 2 2 2 2 2 2 2 2 2 2
left_child=1 7 9 -4 11 6 -6 10 -7 -3 -1 14 -13 -9 -2
right_child=4 2 3 -5 5 8 -8 13 -10 -11 -12 12 -14 -15 -16
leaf_value=-0.00010320452322972536 2.3527046828760186e-06 -0.00019997277628863231 -2.4535966854003134e-05 -0.0001228655452618305 4.4011854850433553e-05 0.00012646628917233708 0.00010616521055685464 -0.00024994983282142685 0.00026197809682344087 -4.218885724185384e-05 -5.4816108766115377e-06 7.9569454520913924e-06 0.00018212421577039133 -0.00013266877192775914 7.4897802490644016e-05
leaf_weight=22 81 50 404 114 194 93 306 23 25 20 45 26 23 150 24
leaf_count=22 81 50 404 114 194 93 306 23 25 20 45 26 23 150 24
internal_value=-4.47918e-07 -7.76651e-05 -5.91184e-05 -4.61761e-05 8.23705e-05 9.60124e-05 8.20497e-05 -0.000123104 0.000155176 -0.000154892 -5.8148e-05 2.76257e-05 8.97089e-05 -0.000148261 2.3527e-06
internal_weight=1600 828 588 518 772 618 500 240 118 70 67 154 49 173 105
internal_count=1600 828 588 518 772 618 500 240 118 70 67 154 49 173 105
is_linear=0
shrinkage=0.05


Tree=55
num_leaves=15
num_cat=0
split_feature=6 7 7 4 4 3 1 2 0 3 5 7 5 0
split_gain=0.00369612 0.000267947 0.000296794 0.000286481 0.00022427 0.000217699 0.000305626 0.00020813 0.000204002 0.000172014 0.000170877 0.000259609 0.000152546 4.41543e-05
threshold=-175.01076867967211 -2.8062247982350264 5.0855746117266571 -0.29840790126964784 -0.22108359729960633 32.740846373135732 2.3332006400395779 13.550372528500786 18.393951316062164 28.452776487264074 1.2939873963593422 -2.0825903402227977 0.7119294762856353 33.548761780969393
decision_type=2 2 2 2 2 2 2 2 2 2 2 2 2 2
left_child=4 7 3 -3 10 9 -7 8 -2 -6 12 -12 -1 -4
right_child=1 2 13 -5 5 6 -8 -9 -10 -11 11 -13 -14 -15
leaf_value=-4.3654315187736898e-05 7.9499217574872702e-05 3.5498658284357916e-05 4.5953336740815447e-05 0.00012242221148394227 -8.6920460242668278e-05 -1.5801808244851602e-06 -8.5592558778317389e-05 0.00015690472372807565 -1.5801808244851602e-06 -0.00022628833820043066 -0.00018849293472158026 -1.5801808244851602e-06 -0.00016239343440247467 -1.5801808244851602e-06
leaf_weight=33 49 122 49 425 123 208 201 25 116 27 20 27 150 25
leaf_count=33 49 122 49 425 123 208 201 25 116 27 20 27 150 25
internal_value=-5.35155e-07 7.44217e-05 9.03187e-05 0.000103035 -7.7582e-05 -6.04829e-05 -4.15866e-05 2.24636e-05 2.09371e-06 -0.000112007 -0.000119141 -3.41002e-05 -0.000140981 -1.58018e-06
internal_weight=1600 811 621 547 789 559 409 190 165 150 230 47 183 74
internal_count=1600 811 621 547 789 559 409 190 165 150 230 47 183 74
is_linear=0
shrinkage=0.05


Tree=56
num_leaves=14
num_cat=0
split_feature=6 2 4 4 3 0 3 5 6 6 5 0 5
split_gain=0.00332087 0.000255455 0.000251373 0.000213277 0.000196563 0.000178328 0.000168523 0.000163105 0.000154218 0.000151256 0.000149944 0.000101527 1.40244e-06
threshold=317.79878505111282 13.28138219734168 -0.32745953425976165 0.36984539383028753 42.343045366019062 51.712264954254209 50.871777784109135 0.76929518118889006 5776.8512311127097 11589.210237107349 1.2889817971973658 33.406936292948942 0.96078853827831578
decision_type=2 2 2 2 2 2 2 2 2 2 2 2 2
left_child=1 2 7 4 8 -4 12 -1 -2 -6 11 -5 -3
right_child=3 6 5 10 9 -7 -8 -9 -10 -11 -12 -13 -14
leaf_value=-4.7170134958018011e-05 1.9169042007397594e-06 -4.7170134958018011e-05 -5.4746988501364063e-05 0.00014172967226118525 6.9717784047771582e-05 -0.00013374118491837555 1.9169042007397594e-06 -0.00016824934226829572 6.9955675266779291e-05 0.00015363006581118008 0.00023727136842633347 4.7510286342312997e-05 1.9169042007397594e-06
leaf_weight=29 134 40 448 73 309 85 72 116 118 65 26 47 38
leaf_count=29 134 40 448 73 309 85 72 116 118 65 26 47 38
internal_value=-6.05822e-07 -7.0161e-05 -8.3224e-05 7.39948e-05 6.1303e-05 -6.73446e-05 -1.11163e-05 -0.000141595 2.71704e-05 8.43015e-05 0.000128413 0.000104827 -4.71701e-05
internal_weight=1600 828 678 772 626 533 150 145 252 374 146 120 78
internal_count=1600 828 678 772 626 533 150 145 252 374 146 120 78
is_linear=0
shrinkage=0.05


Tree=57
num_leaves=15
num_cat=0
split_feature=6 3 6 7 7 2 2 3 2 7 0 1 4 3
split_gain=0.00299854 0.000282384 0.000323399 0.000230571 0.00023792 0.000299313 0.000223365 0.000202449 0.000159421 0.000133606 0.000109851 7.1824e-05 6.14301e-05 1.79151e-05
threshold=-1005.9455663755544 68.119003389933894 1977.4435794098229 5.0855746117266571 -1.5331827955189672 8.2091564147169329 10.973194715404244 72.295240080718216 15.115360214537185 3.5538339631457876 24.861698217718626 2.57983636476837 0.22458907003037532 47.78276524847157
decision_type=2 2 2 2 2 2 2 2 2 2 2 2 2 2
left_child=3 2 12 4 7 -6 9 -1 -4 -3 -5 -8 -2 -12
right_child=1 6 8 10 5 -7 11 -9 -10 -11 13 -13 -14 -15
leaf_value=-0.00012387781753288586 -7.2351452834961924e-06 0.00010354096187511461 5.6701120958326015e-05 -7.3864956688008866e-05 -8.5828064191734331e-05 -7.2351452834961924e-06 0.00015449764341610717 -7.2351452834961924e-06 0.00014365423482180025 -7.2351452834961924e-06 -0.0001773132410865704 0.0002750621746859646 3.0013541310905251e-05 -0.00024118842515947664
leaf_weight=217 130 125 434 22 202 195 30 43 60 23 21 21 54 23
leaf_count=217 130 125 434 22 202 195 30 43 60 23 21 21 54 23
internal_value=-6.16236e-07 6.15327e-05 4.61617e-05 -7.6003e-05 -6.70537e-05 -4.27039e-05 0.000113902 -0.000104234 6.72622e-05 8.28062e-05 -0.00016509 0.000204142 -7.23515e-06 -0.000210703
internal_weight=1600 877 678 723 657 397 199 260 494 148 66 51 184 44
internal_count=1600 877 678 723 657 397 199 260 494 148 66 51 184 44
is_linear=0
shrinkage=0.05


Tree=58
num_leaves=14
num_cat=0
split_feature=6 3 0 7 7 7 3 2 0 4 3 0 3
split_gain=0.00270502 0.000228817 0.000272531 0.00025166 0.00020054 0.000279165 0.000249836 0.000156937 0.000132683 0.000103107 9.84966e-05 1.86776e-05 3.72687e-05
threshold=317.79878505111282 35.519163934350097 83.725314826334966 -4.4044873411009462 5.0855746117266571 -2.0825903402227977 55.210135392012774 13.550372528500786 21.426088506433391 -0.088564444817023927 28.452776487264074 33.548761780969393 48.689537962396273
decision_type=2 2 2 2 2 2 2 2 2 2 2 2 2
left_child=1 8 3 -3 5 7 -7 -2 9 -1 -10 12 -6
right_child=4 2 -4 -5 11 6 -8 -9 10 -11 -12 -13 -14
leaf_value=-8.6239772584090343e-05 1.5072877912572557e-05 -0.00011901070587618749 -0.00022801162544055844 -2.6161471660173777e-05 2.0413372180476622e-05 6.5463887528991537e-05 0.00013904330270508023 0.00014550808191415854 -0.00010226280236176017 1.6525121612543206e-06 -0.00018368322462602348 1.6525121612543206e-06 9.1032153564314793e-05
leaf_weight=22 204 86 20 482 25 269 202 26 119 45 54 24 22
leaf_count=22 204 86 20 482 25 269 202 26 119 45 54 24 22
internal_value=-6.24313e-07 -6.33996e-05 -4.66071e-05 -4.02196e-05 6.67047e-05 7.49709e-05 9.70202e-05 2.98177e-05 -0.000104541 -4.48023e-05 -0.000127677 1.65251e-06 3.91742e-05
internal_weight=1600 828 588 568 772 701 471 230 240 67 173 71 47
internal_count=1600 828 588 568 772 701 471 230 240 67 173 71 47
is_linear=0
shrinkage=0.05


Tree=59
num_leaves=15
num_cat=0
split_feature=6 6 7 2 1 4 3 4 0 7 0 5 3 3
split_gain=0.00245601 0.000241512 0.000209553 0.000219523 0.000179102 0.000136797 0.000136624 0.000134557 0.000135247 0.000118469 9.62294e-05 8.60764e-05 1.77591e-05 9.08789e-06
threshold=-1005.9455663755544 6644.6298884741636 5.0855746117266571 13.28138219734168 3.556394986767677 -0.16809266458747754 32.647200263990356 0.24120149426915025 18.393951316062164 3.4999044617271911 24.861698217718626 0.96504145495518634 47.78276524847157 67.061455932142948
decision_type=2 2 2 2 2 2 2 2 2 2 2 2 2 2
left_child=2 4 3 5 6 -1 -2 8 -3 -9 -4 -5 -12 -6
right_child=1 7 10 11 13 -7 -8 9 -10 -11 12 -13 -14 -15
leaf_value=-0.00010934558057730041 3.7732686905656012e-06 0.00014215490645834837 -6.8517222296742884e-05 -4.0399982340497477e-05 -6.7330720210907943e-06 -5.608167921181979e-05 6.2601201388705157e-05 0.00017126584214266797 6.2601201388705157e-05 6.2601201388705157e-05 -0.00016334676772766259 -6.7330720210907943e-06 -0.00022694332472620655 5.7999836610092433e-05
leaf_weight=182 124 55 22 55 69 357 339 73 175 21 21 63 23 21
leaf_count=182 124 55 22 55 69 357 339 73 175 21 21 63 23 21
internal_value=-7.4279e-07 5.55036e-05 -6.89698e-05 -6.0438e-05 3.54196e-05 -7.40669e-05 4.88486e-05 8.97828e-05 6.91835e-05 0.000140185 -0.000153899 -6.73307e-06 -0.00019659 -6.73307e-06
internal_weight=1600 877 723 657 553 539 463 324 230 94 66 118 44 90
internal_count=1600 877 723 657 553 539 463 324 230 94 66 118 44 90
is_linear=0
shrinkage=0.05


Tree=60
num_leaves=14
num_cat=0
split_feature=6 6 4 4 3 7 7 0 1 3 6 3 2
split_gain=0.00219815 0.000212921 0.000204053 0.000197487 0.00022285 0.000185066 0.00023325 0.000152902 0.000141691 8.19846e-05 0.000125745 5.73624e-05 1.05311e-05
threshold=1.0000000180025095e-35 -14631.684512585054 -0.34407906550083861 0.29343145335614068 73.127816611036749 -1.2847616332495189 5.0855746117266571 40.836904527730333 1.2407484946884748 60.593851158816584 6818.1409933093846 62.779827061059812 13.022172923817973
decision_type=2 2 2 2 2 2 2 2 2 2 2 2 2
left_child=1 11 9 4 -3 8 -7 -5 -4 12 -11 -1 -2
right_child=2 3 5 7 -6 6 -8 -9 -10 10 -12 -13 -14
leaf_value=-0.00019288907152388546 -3.021060526394847e-07 -8.020626006743464e-05 0.0001293880164614945 -3.021060526394847e-07 -3.021060526394847e-07 0.00010759498439157012 -3.021060526394847e-07 -8.9145675943024007e-05 2.0574561703257329e-05 -3.021060526394847e-07 0.00015125440855310603 -0.00010242923365817756 5.18492487117328e-05
leaf_weight=35 84 477 35 126 99 339 56 49 206 26 23 21 24
leaf_count=35 84 477 35 126 99 339 56 49 206 26 23 21 24
internal_value=-8.14924e-07 -5.89098e-05 5.83056e-05 -5.18966e-05 -6.60294e-05 7.09072e-05 9.19748e-05 -5.37972e-06 3.63773e-05 7.25707e-06 6.57734e-05 -0.000152962 -3.02106e-07
internal_weight=1600 807 793 751 576 636 395 175 241 157 49 56 108
internal_count=1600 807 793 751 576 636 395 175 241 157 49 56 108
is_linear=0
shrinkage=0.05


Tree=61
num_leaves=15
num_cat=0
split_feature=6 3 6 2 7 7 2 3 0 4 4 0 1 3
split_gain=0.00198428 0.000226294 0.000247779 0.000194995 0.000187524 0.000201692 0.00027052 0.000171251 0.000141681 0.000122894 9.544e-05 8.48006e-05 6.63748e-05 1.61027e-05
threshold=-1005.9455663755544 68.119003389933894 3636.1056676598696 10.973194715404244 5.0855746117266571 -1.5331827955189672 5.8675050132156503 72.295240080718216 15.76770385084483 0.1026809617690964 0.35674510378523167 24.861698217718626 2.57983636476837 47.78276524847157
decision_type=2 2 2 2 2 2 2 2 2 2 2 2 2 2
left_child=4 2 10 9 5 7 -7 -1 -4 -3 -2 -6 -5 -13
right_child=1 3 8 12 11 6 -8 -9 -10 -11 -12 13 -14 -15
leaf_value=-0.00010639444859943852 -6.1467090976435318e-06 2.9999397925580109e-05 0.00013033271200839637 0.00013326579213753577 -6.2277754477690908e-05 -8.6940779188311859e-05 -6.1467090976435318e-06 -6.1467090976435318e-06 4.8859807801849698e-05 0.00012279952821093806 3.1894728743013528e-05 -0.00015084984599005632 0.00024916656991644275 -0.00021140797230738987
leaf_weight=217 242 88 64 30 22 143 254 43 321 60 51 21 21 23
leaf_count=217 242 88 64 30 22 143 254 43 321 60 51 21 21 23
internal_value=-7.62364e-07 4.97945e-05 3.60345e-05 9.66753e-05 -6.2088e-05 -5.40171e-05 -3.15977e-05 -8.82498e-05 6.24034e-05 6.76211e-05 1.3861e-06 -0.000142429 0.00018099 -0.000182505
internal_weight=1600 877 678 199 723 657 397 260 385 148 293 66 51 44
internal_count=1600 877 678 199 723 657 397 260 385 148 293 66 51 44
is_linear=0
shrinkage=0.05


Tree=62
num_leaves=15
num_cat=0
split_feature=6 3 6 2 7 2 0 4 6 0 5 1 4 3
split_gain=0.001787 0.000204091 0.000225325 0.000175983 0.00016981 0.000192239 0.00013991 0.000130829 0.000111681 7.65325e-05 6.38595e-05 5.99032e-05 4.00068e-05 1.45327e-05
threshold=-1005.9455663755544 68.119003389933894 1977.4435794098229 10.973194715404244 5.0855746117266571 13.28138219734168 10.592159395979037 -0.60565568298073991 9414.7962427706098 24.861698217718626 0.96504145495518634 2.57983636476837 0.22458907003037532 47.78276524847157
decision_type=2 2 2 2 2 2 2 2 2 2 2 2 2 2
left_child=4 2 12 8 5 7 -4 -1 -3 -6 -7 -5 -2 -11
right_child=1 3 6 11 9 10 -8 -9 -10 13 -12 -13 -14 -15
leaf_value=-0.00016057862220887647 -5.767570273014589e-06 3.8914164256271535e-05 0.0001626760017340227 0.00012660250067710876 -5.9163865278771312e-05 -3.4943175492721057e-05 4.5613722349670949e-05 -5.7827921484398247e-05 0.00011809008823056974 -0.00014330735119160852 -5.767570273014589e-06 0.00023670824039505705 2.3122146426362083e-05 -0.00020083757775390279
leaf_weight=33 130 113 27 30 22 55 467 506 35 21 63 21 54 23
leaf_count=33 130 113 27 30 22 55 467 506 35 21 63 21 54 23
internal_value=-6.57888e-07 4.732e-05 3.42525e-05 9.18416e-05 -5.88552e-05 -5.1175e-05 5.20119e-05 -6.41188e-05 6.424e-05 -0.000135308 -5.76757e-06 0.00017194 -5.76757e-06 -0.00017338
internal_weight=1600 877 678 199 723 657 494 539 148 66 118 51 184 44
internal_count=1600 877 678 199 723 657 494 539 148 66 118 51 184 44
is_linear=0
shrinkage=0.05


Tree=63
num_leaves=14
num_cat=0
split_feature=6 3 0 7 4 5 3 0 2 3 4 3 1
split_gain=0.00161286 0.00019785 0.000236447 0.000221141 0.000176333 0.000173878 0.000158537 0.000110811 0.000101084 9.85493e-05 8.64993e-05 8.60941e-05 4.45408e-05
threshold=317.79878505111282 35.519163934350097 83.725314826334966 -4.4044873411009462 -0.050626844406857656 1.5272433050199254 25.941620437482833 21.426088506433391 15.115360214537185 61.770568989847447 -0.088564444817023927 28.452776487264074 2.2601146314164748
decision_type=2 2 2 2 2 2 2 2 2 2 2 2 2
left_child=1 7 3 -3 8 6 -6 10 9 -2 -1 -9 -10
right_child=4 2 -4 -5 5 -7 -8 11 12 -11 -12 -13 -14
leaf_value=-7.0591151018046933e-05 1.1715673794092114e-06 -0.00010135450327144883 -0.00020241378009814074 -1.4316976610821277e-05 1.1715673794092114e-06 0.00018728786920790651 7.9634440397613725e-05 -8.4698957909816214e-05 5.742335534032043e-05 5.567798406922347e-05 1.1715673794092114e-06 -0.00016082080579188322 0.00015073076410230681
leaf_weight=22 207 86 20 482 73 31 315 119 20 105 45 54 21
leaf_count=22 207 86 20 482 73 31 315 119 20 105 45 54 21
internal_value=-5.86529e-07 -4.90597e-05 -3.34448e-05 -2.74952e-05 5.14029e-05 7.33364e-05 6.4232e-05 -8.73164e-05 2.53685e-05 1.56692e-05 -3.27228e-05 -0.00010846 9.91775e-05
internal_weight=1600 828 588 568 772 419 388 240 353 312 67 173 41
internal_count=1600 828 588 568 772 419 388 240 353 312 67 173 41
is_linear=0
shrinkage=0.05


Tree=64
num_leaves=13
num_cat=0
split_feature=6 7 3 2 7 6 4 0 5 4 0 3
split_gain=0.00146218 0.000187226 0.000258792 0.000218407 0.000208106 0.000162622 0.000159105 0.000189949 0.000180741 0.000130679 9.60413e-05 4.91852e-05
